{"internalDocumentIDStore":{"internalIdToId":["11133bfa311fac3b5214928e2ee5ccf9","8771120ba6f165bb5394407b778146d0","ceb5e5ba11912824e8a275bfe30d6412","41b851e64bfc61b247497e62edee2a19","7d081e3822387069430df3f737152c1a","4a6a8ea24d069df04cd0caf86886fbaa","3b36a0243bd38a35abd4078e30177162"]},"index":{"indexes":{"id":{"type":"Radix","node":{"w":"","s":"","c":{"1":{"w":"11133bfa311fac3b5214928e2ee5ccf9","s":"11133bfa311fac3b5214928e2ee5ccf9","c":{},"d":[1],"e":true},"3":{"w":"3b36a0243bd38a35abd4078e30177162","s":"3b36a0243bd38a35abd4078e30177162","c":{},"d":[7],"e":true},"4":{"w":"4","s":"4","c":{"1":{"w":"41b851e64bfc61b247497e62edee2a19","s":"1b851e64bfc61b247497e62edee2a19","c":{},"d":[4],"e":true},"a":{"w":"4a6a8ea24d069df04cd0caf86886fbaa","s":"a6a8ea24d069df04cd0caf86886fbaa","c":{},"d":[6],"e":true}},"d":[],"e":false},"7":{"w":"7d081e3822387069430df3f737152c1a","s":"7d081e3822387069430df3f737152c1a","c":{},"d":[5],"e":true},"8":{"w":"8771120ba6f165bb5394407b778146d0","s":"8771120ba6f165bb5394407b778146d0","c":{},"d":[2],"e":true},"c":{"w":"ceb5e5ba11912824e8a275bfe30d6412","s":"ceb5e5ba11912824e8a275bfe30d6412","c":{},"d":[3],"e":true}},"d":[],"e":false},"isArray":false},"title":{"type":"Radix","node":{"w":"","s":"","c":{"0":{"w":"0","s":"0","c":{"0":{"w":"00","s":"0","c":{"c":{"w":"00can-do","s":"can-do","c":{},"d":[6],"e":true}},"d":[7],"e":true},"1":{"w":"01","s":"1","c":{},"d":[3,4],"e":true},"4":{"w":"04","s":"4","c":{},"d":[5],"e":true}},"d":[],"e":false},"2":{"w":"2025-04-22","s":"2025-04-22","c":{},"d":[2],"e":true},"t":{"w":"tasuku","s":"tasuku","c":{},"d":[1],"e":true},"r":{"w":"risuto","s":"risuto","c":{},"d":[1],"e":true},"c":{"w":"cando","s":"cando","c":{},"d":[5],"e":true}},"d":[],"e":false},"isArray":false},"path":{"type":"Radix","node":{"w":"","s":"","c":{"0":{"w":"0","s":"0","c":{"0":{"w":"00","s":"0","c":{"c":{"w":"00can-do","s":"can-do","c":{},"d":[6],"e":true}},"d":[7],"e":true},"1":{"w":"01","s":"1","c":{},"d":[3,4],"e":true},"4":{"w":"04","s":"4","c":{},"d":[5],"e":true}},"d":[],"e":false},"2":{"w":"2025-04-22","s":"2025-04-22","c":{},"d":[2],"e":true},"t":{"w":"tasuku","s":"tasuku","c":{},"d":[1],"e":true},"r":{"w":"risuto","s":"risuto","c":{},"d":[1],"e":true},"m":{"w":"md","s":"md","c":{},"d":[1,2,3,4,5,6,7],"e":true},"c":{"w":"can","s":"can","c":{"-":{"w":"can-do","s":"-do","c":{},"d":[4,5,6],"e":true},"d":{"w":"cando","s":"do","c":{},"d":[5],"e":true}},"d":[],"e":false}},"d":[],"e":false},"isArray":false},"content":{"type":"Radix","node":{"w":"","s":"","c":{"0":{"w":"0","s":"0","c":{"0":{"w":"00","s":"0","c":{"c":{"w":"00can-do","s":"can-do","c":{},"d":[6],"e":true}},"d":[7],"e":true},"1":{"w":"01","s":"1","c":{},"d":[3,4,6],"e":true},"3":{"w":"03","s":"3","c":{},"d":[3,4,5,6,7],"e":true},"4":{"w":"04","s":"4","c":{},"d":[1,2,3,4,5,6,7],"e":true},"7":{"w":"07","s":"7","c":{},"d":[5],"e":true},"8":{"w":"08","s":"8","c":{},"d":[1],"e":true},"9":{"w":"09","s":"9","c":{},"d":[1,4,7],"e":true}},"d":[],"e":false},"1":{"w":"1","s":"1","c":{"0":{"w":"10","s":"0","c":{},"d":[1,2,3,6,7],"e":true},"1":{"w":"11","s":"1","c":{},"d":[4,5,7],"e":true},"2":{"w":"12","s":"2","c":{},"d":[3],"e":true},"4":{"w":"14","s":"4","c":{},"d":[4,5],"e":true},"5":{"w":"15","s":"5","c":{},"d":[6,7],"e":true},"6":{"w":"16","s":"6","c":{},"d":[3],"e":true}},"d":[7],"e":true},"2":{"w":"2","s":"2","c":{"0":{"w":"20","s":"0","c":{"2":{"w":"2025","s":"25","c":{"-":{"w":"2025-04-22","s":"-04-22","c":{},"d":[2],"e":true}},"d":[1,2,3,4,5,6,7],"e":true}},"d":[7],"e":true},"1":{"w":"21","s":"1","c":{},"d":[1,5],"e":true},"2":{"w":"22","s":"2","c":{},"d":[1,2],"e":true},"4":{"w":"24","s":"4","c":{},"d":[2,6,7],"e":true},"5":{"w":"25","s":"5","c":{},"d":[7],"e":true},"-":{"w":"2-3","s":"-3","c":{},"d":[7],"e":true}},"d":[2,7],"e":true},"3":{"w":"3","s":"3","c":{"0":{"w":"30","s":"0","c":{},"d":[7],"e":true},"1":{"w":"31","s":"1","c":{},"d":[3],"e":true},"3":{"w":"33","s":"3","c":{},"d":[2,3,4],"e":true},"8":{"w":"38","s":"8","c":{},"d":[3],"e":true}},"d":[3,4,7],"e":true},"4":{"w":"4","s":"4","c":{"1":{"w":"41","s":"1","c":{},"d":[7],"e":true},"2":{"w":"42","s":"2","c":{},"d":[3],"e":true},"6":{"w":"46","s":"6","c":{},"d":[4,6],"e":true},"8":{"w":"48","s":"8","c":{},"d":[6],"e":true}},"d":[7],"e":true},"5":{"w":"5","s":"5","c":{"3":{"w":"53","s":"3","c":{},"d":[4],"e":true},"4":{"w":"54","s":"4","c":{},"d":[5],"e":true}},"d":[3,7],"e":true},"6":{"w":"6","s":"6","c":{},"d":[7],"e":true},"7":{"w":"7","s":"7","c":{},"d":[7],"e":true},"8":{"w":"8","s":"8","c":{"0":{"w":"800","s":"00","c":{},"d":[5],"e":true}},"d":[7],"e":true},"9":{"w":"9","s":"9","c":{},"d":[7],"e":true},"n":{"w":"n","s":"n","c":{"o":{"w":"note","s":"ote","c":{},"d":[1,2,3,4,5,6,7],"e":true},"i":{"w":"nihongo-ews","s":"ihongo-ews","c":{},"d":[5],"e":true},"k":{"w":"nkg","s":"kg","c":{},"d":[7],"e":true}},"d":[],"e":false},"t":{"w":"t","s":"t","c":{"i":{"w":"title","s":"itle","c":{},"d":[1,2,3,4,5,6,7],"e":true},"a":{"w":"tasuku","s":"asuku","c":{},"d":[1],"e":true}},"d":[],"e":false},"r":{"w":"risuto","s":"risuto","c":{},"d":[1],"e":true},"m":{"w":"m","s":"m","c":{"e":{"w":"me","s":"e","c":{"t":{"w":"metadata","s":"tadata","c":{},"d":[1,2,3,4,5,6,7],"e":true},"x":{"w":"mext","s":"xt","c":{},"d":[5],"e":true}},"d":[],"e":false},"o":{"w":"modified","s":"odified","c":{},"d":[1,2,3,4,5,6,7],"e":true}},"d":[],"e":false},"k":{"w":"kanban","s":"kanban","c":{"-":{"w":"kanban-plugin","s":"-plugin","c":{},"d":[1],"e":true}},"d":[1],"e":true},"b":{"w":"b","s":"b","c":{"2":{"w":"b2","s":"2","c":{},"d":[5],"e":true},"o":{"w":"board","s":"oard","c":{},"d":[1],"e":true},"l":{"w":"block","s":"lock","c":{},"d":[1,2,3,4,5,6,7],"e":true},"y":{"w":"by","s":"y","c":{},"d":[5],"e":true}},"d":[],"e":false},"c":{"w":"c","s":"c","c":{"r":{"w":"created","s":"reated","c":{},"d":[1,2,3,4,5,6,7],"e":true},"o":{"w":"content","s":"ontent","c":{},"d":[1,2,3,4,5,6,7],"e":true},"a":{"w":"can","s":"an","c":{"-":{"w":"can-do","s":"-do","c":{},"d":[4],"e":true},"d":{"w":"cando","s":"do","c":{},"d":[5],"e":true}},"d":[5],"e":true}},"d":[],"e":false},"-":{"w":"-","s":"-","c":{"-":{"w":"---","s":"--","c":{},"d":[1],"e":true}},"d":[2],"e":true},"s":{"w":"settings","s":"settings","c":{},"d":[1],"e":true},"l":{"w":"li","s":"li","c":{"s":{"w":"list-collapse","s":"st-collapse","c":{},"d":[1],"e":true},"f":{"w":"life","s":"fe","c":{},"d":[5],"e":true}},"d":[],"e":false},"f":{"w":"f","s":"f","c":{"a":{"w":"false","s":"alse","c":{},"d":[1],"e":true},"r":{"w":"framework_of_reference","s":"ramework_of_reference","c":{},"d":[5],"e":true}},"d":[],"e":false},"a":{"w":"a","s":"a","c":{"1":{"w":"a1","s":"1","c":{},"d":[5],"e":true},"i":{"w":"ai","s":"i","c":{},"d":[2],"e":true}},"d":[],"e":false},"j":{"w":"j","s":"j","c":{"f":{"w":"jf","s":"f","c":{},"d":[4],"e":true},"p":{"w":"jp","s":"p","c":{},"d":[5],"e":true}},"d":[],"e":false},"d":{"w":"do","s":"do","c":{},"d":[5],"e":true},"h":{"w":"https","s":"https","c":{},"d":[5],"e":true},"w":{"w":"www","s":"www","c":{},"d":[5],"e":true},"g":{"w":"go","s":"go","c":{},"d":[5],"e":true},"i":{"w":"information","s":"information","c":{},"d":[5],"e":true}},"d":[],"e":false},"isArray":false},"embeddingModel":{"type":"Radix","node":{"w":"","s":"","c":{"t":{"w":"text-embedding-004","s":"text-embedding-004","c":{},"d":[1,2,3,4,5,6,7],"e":true}},"d":[],"e":false},"isArray":false},"created_at":{"type":"AVL","node":{"root":{"k":1745286699812,"v":[3],"l":{"k":1745286699807,"v":[1],"l":{"k":0,"v":[],"l":null,"r":null,"h":0},"r":{"k":1745286699811,"v":[2],"l":null,"r":null,"h":0},"h":1},"r":{"k":1745286699813,"v":[4,5],"l":null,"r":{"k":1745286699815,"v":[6,7],"l":null,"r":null,"h":0},"h":1},"h":2}},"isArray":false},"ctime":{"type":"AVL","node":{"root":{"k":1743641633810,"v":[4],"l":{"k":1742796106470,"v":[6],"l":{"k":0,"v":[],"l":null,"r":null,"h":0},"r":{"k":1743406958567,"v":[3],"l":{"k":1742796581721,"v":[7],"l":null,"r":null,"h":0},"r":null,"h":1},"h":2},"r":{"k":1745280608613,"v":[1],"l":{"k":1744596423134,"v":[5],"l":null,"r":null,"h":0},"r":{"k":1745285604814,"v":[2],"l":null,"r":null,"h":0},"h":1},"h":3}},"isArray":false},"mtime":{"type":"AVL","node":{"root":{"k":1744598793897,"v":[4],"l":{"k":1743737618245,"v":[3],"l":{"k":1743638605626,"v":[7],"l":{"k":0,"v":[],"l":null,"r":null,"h":0},"r":{"k":1743642948462,"v":[6],"l":null,"r":null,"h":0},"h":1},"r":{"k":1744597314707,"v":[5],"l":null,"r":null,"h":0},"h":2},"r":{"k":1745280621509,"v":[1],"l":null,"r":{"k":1745285604826,"v":[2],"l":null,"r":null,"h":0},"h":1},"h":3}},"isArray":false},"tags":{"type":"Radix","node":{"w":"","s":"","c":{},"d":[],"e":false},"isArray":true},"extension":{"type":"Radix","node":{"w":"","s":"","c":{"m":{"w":"md","s":"md","c":{},"d":[1,2,3,4,5,6,7],"e":true}},"d":[],"e":false},"isArray":false}},"vectorIndexes":{"embedding":{"size":768,"vectors":{"11133bfa311fac3b5214928e2ee5ccf9":[0.9999834004962165,[0.022567143663764,0.07798556983470917,-0.051116056740283966,0.029597045853734016,0.017339220270514488,0.03237994760274887,0.08277536928653717,0.00867273285984993,0.016194427385926247,-0.00034920292091555893,-0.006155621260404587,0.049029383808374405,0.04131859540939331,-0.01618892513215542,-0.01925058662891388,-0.052642617374658585,0.036225151270627975,0.022981688380241394,-0.011616111733019352,-0.01999371498823166,-0.038506537675857544,-0.004339825827628374,-0.022242262959480286,0.042760156095027924,-0.02189565822482109,-0.052585016936063766,-0.008965710178017616,0.014660975895822048,-0.011495950631797314,-0.044744595885276794,0.013675388880074024,0.02315828949213028,0.009767847135663033,-0.02141878567636013,0.03508491814136505,0.04661497473716736,-0.030784863978624344,0.07150036841630936,0.004877982661128044,-0.04070271924138069,-0.05134683847427368,-0.004460571333765984,-0.007955496199429035,0.03141601383686066,-0.02559429593384266,0.014187037944793701,-0.03341541066765785,0.0008124716114252806,-0.006434895098209381,0.009955247864127159,0.054795775562524796,0.020003821700811386,-0.002929528011009097,-0.019428877159953117,-0.06983986496925354,-0.06217491999268532,-0.05930959805846214,-0.04337958246469498,0.03919898346066475,-0.02431471273303032,-0.025010092183947563,-0.0028106982354074717,-0.06199008971452713,-0.036977943032979965,0.006889100652188063,-0.02751629240810871,-0.017635701224207878,0.005586377810686827,-0.018555577844381332,0.015206987038254738,-0.02195909060537815,0.0476393923163414,-0.05090859904885292,-0.007680851500481367,-0.02214743196964264,0.011809364892542362,-0.013882506638765335,0.0059837535955011845,0.04430611804127693,0.04449652135372162,-0.014253305271267891,-0.02604714408516884,0.021641870960593224,0.037675198167562485,0.047418754547834396,0.014393318444490433,-0.0017413462046533823,-0.0038609032053500414,-0.001177248195745051,-0.05528508871793747,0.07917945832014084,0.023698465898633003,-0.032549042254686356,0.00014284987992141396,0.10134346783161163,-0.046787526458501816,-0.07823783159255981,-0.11269501596689224,0.05510151758790016,0.052547480911016464,-0.022333305329084396,-0.006368246395140886,0.01717124693095684,-0.026419339701533318,0.018885252997279167,-0.031068017706274986,-0.05721165984869003,-0.012765374965965748,-0.06699725985527039,0.012142731808125973,-0.007614949718117714,-0.01625160500407219,0.024478338658809662,-0.010779928416013718,-0.04122362658381462,0.037736475467681885,0.014661965891718864,0.040414776653051376,-0.01628819666802883,-0.021824408322572708,0.04766776040196419,0.07218768447637558,-0.004718409851193428,0.05224568024277687,0.06632596254348755,0.02872910350561142,-0.02224908396601677,-0.008259651251137257,0.02207975462079048,0.015851834788918495,0.0352691113948822,-0.054820239543914795,-0.018522383645176888,0.04839140549302101,0.010245577432215214,0.025309698656201363,0.03919193148612976,0.03661907836794853,0.05169960483908653,0.010940681211650372,-0.013134055770933628,-0.022818278521299362,-0.10415827482938766,0.037397872656583786,-0.0005756928003393114,-0.011276300065219402,0.013271559029817581,0.05341265723109245,-0.013059820979833603,0.05024576187133789,-0.02593330480158329,-0.00802652072161436,-0.003600744530558586,-0.019759302958846092,0.039970628917217255,-0.04260798171162605,0.015468350611627102,-0.06176865100860596,0.01876387931406498,0.02032317966222763,0.03057422861456871,-0.06337498873472214,0.007736622355878353,0.05734797939658165,0.03635701909661293,-0.06554623693227768,-0.08980558812618256,0.0027004294097423553,0.013846445828676224,0.00409383000805974,-0.0307371374219656,-0.040808770805597305,-0.04732229560613632,-0.04131319001317024,-0.03859095275402069,0.04211917519569397,0.0158942099660635,0.0012546902289614081,-0.053008731454610825,-0.016504211351275444,0.0819244384765625,0.06994829326868057,0.003741928841918707,-0.007299464661628008,0.009893549606204033,0.00947257224470377,-0.024929415434598923,0.0039164284244179726,0.014675269834697247,0.023367678746581078,0.011595726944506168,-0.02693130262196064,0.06034831330180168,0.05483253300189972,-0.025154778733849525,-0.001991319004446268,0.02955835685133934,0.03158950060606003,-0.025615394115447998,-0.02798265591263771,0.04453562945127487,0.032268717885017395,-0.03958025202155113,0.04511043801903725,0.012205112725496292,-0.00973436888307333,-0.021325519308447838,-0.0677243247628212,0.004148317500948906,-0.004345569759607315,0.004107475280761719,-0.04802921786904335,-0.0025476613081991673,-0.051826849579811096,0.0223750788718462,-0.005232102703303099,0.042984429746866226,-0.0007728273631073534,0.053860876709222794,-0.03083900921046734,0.004126701038330793,0.011600328609347343,-0.0003148927935399115,0.04760320112109184,0.02838769368827343,-0.051676955074071884,-0.07838954776525497,0.005787186324596405,0.036120012402534485,-0.01941504143178463,0.019043419510126114,0.07293856889009476,0.012780589051544666,0.014470785856246948,-0.01438483688980341,0.01829185150563717,0.01071549765765667,-0.08616557717323303,-0.050037603825330734,0.031182846054434776,0.008661064319312572,-0.027499597519636154,0.013294327072799206,0.013701292686164379,0.05746788531541824,-0.0037491449620574713,0.01336743962019682,-0.0020292496774345636,-0.005982877220958471,-0.03558893874287605,0.027661357074975967,-0.030758703127503395,-0.041492220014333725,0.007883142679929733,-0.02505420707166195,0.007275845855474472,0.04633592814207077,0.013094152323901653,-0.0011717394227162004,-0.01938595622777939,0.03755902126431465,-0.026507679373025894,-0.009699090383946896,-0.04854346811771393,-0.07251115143299103,-0.07949738204479218,-0.02789393626153469,-0.005764150992035866,0.019093317911028862,-0.040324222296476364,0.03891754522919655,-0.07941731810569763,-0.0888621136546135,-0.006379569880664349,-0.04776294156908989,0.01113612949848175,-0.020818611606955528,-0.017354318872094154,-0.04141125828027725,-0.04220578446984291,0.047093961387872696,-0.008134526200592518,0.049768708646297455,0.00478221895173192,0.03282563015818596,-0.02052987739443779,-0.01984998770058155,-0.04029698669910431,-0.0014796926407143474,-0.04113367572426796,0.006189688574522734,0.0538213737308979,-0.049650341272354126,-0.009766753762960434,0.04520772024989128,0.017664192244410515,0.023491159081459045,0.09577270597219467,0.020988773554563522,-0.021718529984354973,0.059759046882390976,0.0276815015822649,-0.013084843754768372,0.030424928292632103,-0.007401741575449705,0.015495184808969498,-0.029600607231259346,-0.015664538368582726,-0.015237588435411453,-0.01623375341296196,0.045503269881010056,0.016943393275141716,-0.04331417754292488,0.031071418896317482,-0.01952383853495121,-0.03433898836374283,-0.17692679166793823,0.012985493056476116,-0.02482171170413494,-0.0053122881799936295,0.022387847304344177,0.0015224118251353502,-0.06478860974311829,0.011631391942501068,0.01341318991035223,-0.02681790292263031,0.008448848500847816,0.0395386666059494,-0.02444246970117092,0.015349696390330791,0.025982854887843132,-0.011387296952307224,-0.008225757628679276,-0.023666825145483017,-0.022194869816303253,0.040119465440511703,-0.020014584064483643,-0.003734708996489644,0.023332394659519196,0.044498540461063385,0.014102316461503506,-0.013138105161488056,0.017887823283672333,0.015613619238138199,-0.007120148278772831,-0.03152906149625778,0.0016752040246501565,-0.015260434709489346,-0.004976210650056601,-0.01976948045194149,0.06001190468668938,0.06337978690862656,-0.016098162159323692,0.004539353307336569,0.0009295425261370838,0.010785931721329689,0.01371947955340147,0.009732138365507126,-0.00897970236837864,-0.04204293712973595,0.009331264533102512,0.021119751036167145,-0.00611426867544651,0.052485089749097824,-0.017762213945388794,0.000614592048805207,0.06767889857292175,0.043642252683639526,0.000942362705245614,-0.05831858515739441,-0.06917473673820496,0.05013580247759819,-0.015349839814007282,-0.026134205982089043,-0.009841520339250565,-0.033376261591911316,-0.021561620756983757,0.02998235821723938,0.021747678518295288,-0.057091932743787766,-0.025974635034799576,-0.025974493473768234,0.010106347501277924,0.02502409927546978,-0.015376055613160133,0.08488279581069946,-0.06787317246198654,0.00692600617185235,-0.024536605924367905,-0.03295069560408592,-0.001206977991387248,0.03214181587100029,0.0006519792368635535,0.0397726409137249,-0.008705985732376575,0.03644702211022377,-0.034976787865161896,0.0853913202881813,0.00808384083211422,0.027765657752752304,-0.0849849283695221,-0.04336562380194664,0.04228208214044571,-0.015717562288045883,-0.032929450273513794,-0.009767026640474796,0.03590986877679825,0.021836817264556885,0.00867285393178463,0.013199464417994022,0.048044465482234955,-0.060558442026376724,-0.017315326258540154,0.00535831693559885,-0.01891213469207287,0.009024587459862232,0.001511582056991756,-0.004838777706027031,0.0007790206000208855,0.020047809928655624,-0.012473872862756252,0.001010868581943214,0.042038559913635254,0.01911609247326851,-0.03691054508090019,-0.07632371038198471,-0.033919189125299454,-0.009365184232592583,-0.010308777913451195,-0.010508152656257153,0.032458290457725525,0.03790053725242615,-0.05330045148730278,-0.01745334267616272,-0.01298819575458765,0.023745931684970856,-0.005231705494225025,-0.07806490361690521,0.0161894541233778,0.040997717529535294,0.019543636590242386,0.017970670014619827,0.08704553544521332,-0.0005618429277092218,-0.008637841790914536,0.03805125877261162,-0.0061319791711866856,-0.014551209285855293,-0.010581743903458118,-0.0744556412100792,-0.018234992399811745,0.018392493948340416,0.011982160620391369,-0.041729092597961426,-0.05765599384903908,0.04326748102903366,0.015055403113365173,0.017168719321489334,-0.02431960590183735,-0.018889345228672028,-0.06715229153633118,-0.004442110192030668,0.01816120557487011,-0.011625653132796288,0.00923641212284565,-0.06405255943536758,-0.05831665173172951,-0.003245164407417178,0.0027609304524958134,-0.012792234309017658,0.008821699768304825,0.010398472659289837,0.030906589701771736,0.010529770515859127,-0.013845070265233517,0.023765675723552704,0.04702673852443695,-0.012755460105836391,0.017949437722563744,-0.0037140471395105124,-0.02672603912651539,0.00780419772490859,-0.01544628944247961,0.004233093466609716,0.05444773659110069,-0.012378336861729622,-0.042376767843961716,0.0003584549413062632,0.0170929916203022,-0.0647256001830101,0.030950402840971947,-0.02627565898001194,-0.053095489740371704,-0.011605392210185528,0.016956716775894165,-0.0016149783041328192,0.0443856455385685,-0.03563627600669861,-0.002331807976588607,0.012102802284061909,0.09591107815504074,-0.001552779576741159,0.03658255934715271,-0.015783177688717842,-0.009532103314995766,0.00214112875983119,0.019441094249486923,-0.01947581022977829,0.09121979773044586,0.07681913673877716,0.01991238445043564,-0.0375220887362957,-0.00460140872746706,0.0034619737416505814,-0.074239082634449,0.019713645800948143,-0.0823080837726593,-0.024556657299399376,-0.00662263622507453,0.005103100091218948,-0.05579055845737457,-0.035481128841638565,0.006301041226834059,0.017671585083007812,-0.02247386798262596,-0.024033039808273315,0.008880109526216984,0.03955031931400299,0.01199153158813715,0.03229803964495659,-0.031025072559714317,0.08261162042617798,0.05251561477780342,-0.00020486244466155767,0.05532735586166382,0.03400808572769165,0.04594312235713005,0.0017966229934245348,0.04120047390460968,0.006844118237495422,-0.006470231804996729,0.04810437187552452,0.039355941116809845,-0.005683822091668844,0.05950541794300079,0.01820642687380314,0.009373067878186703,0.047246307134628296,-0.005038801115006208,0.0790693536400795,-0.026163268834352493,-0.020306983962655067,-0.04511379450559616,0.031215999275445938,-0.015033508650958538,-0.03586520254611969,0.058015868067741394,-0.018527308478951454,-0.0027763373218476772,0.0035506633576005697,0.032336436212062836,-0.001957461703568697,-0.018592342734336853,0.004046488553285599,0.011011753231287003,-0.03239244967699051,-0.014783610589802265,0.06679847091436386,-0.007588708307594061,-0.016787510365247726,-0.012924429029226303,-0.004825929645448923,0.026486197486519814,-0.005550505127757788,-0.0014358769403770566,0.02261275239288807,-0.069978266954422,-0.0038813280407339334,-0.003691237885504961,0.012552134692668915,-0.0218918826431036,-0.01271822676062584,0.06449894607067108,0.014500108547508717,-0.04210515692830086,0.01568087749183178,0.01399895828217268,-0.05704732611775398,0.014200476929545403,0.02742212638258934,-0.005155565217137337,-0.010798591189086437,0.00032896659104153514,-0.03847191855311394,0.05821177735924721,-0.0073207076638937,-0.03766936436295509,-0.01318484265357256,0.016414860263466835,-0.0017319881590083241,0.06106181442737579,-0.014391131699085236,0.039105936884880066,0.0036401827819645405,-0.018534166738390923,-0.055720847100019455,-0.05474274978041649,-0.07706155627965927,0.06554063409566879,0.039459019899368286,-0.019962243735790253,0.0614471361041069,-0.0041950298473238945,-0.06855041533708572,-0.06359020620584488,0.025327684357762337,-0.05247112736105919,-0.017549844458699226,0.07527664303779602,0.058363206684589386,-0.019065631553530693,0.03854277729988098,-0.0104244789108634,-0.025930026546120644,0.0027413403149694204,-0.015976980328559875,-0.018475646153092384,-0.030268782749772072,0.01335738506168127,-0.034394994378089905,-0.040600936859846115,0.0440656878054142,0.047837045043706894,-0.01815285161137581,-0.02344079688191414,-0.01677229441702366,-0.042906466871500015,0.020077046006917953,0.010165523737668991,-0.06757257878780365,0.014790675602853298,0.05212850496172905,0.07787800580263138,-0.01498323306441307,-0.06642401963472366,0.01962689682841301,0.02109256014227867,0.025498494505882263,0.0034400010481476784,0.004653262440115213,-0.008106839843094349,0.06101149693131447,-0.014805643819272518,0.03934697434306145,-0.04639756679534912,-0.020380528643727303,-0.041562099009752274,-0.023859454318881035,0.039027053862810135,-0.01752435229718685,-0.05580915883183479,-0.021396737545728683,-0.006034569814801216,-0.013962376862764359,-0.029155049473047256,-0.027455486357212067,-0.05853040888905525,-0.010982004925608635,0.021059328690171242,-0.0319974459707737,-0.0029083313420414925,-0.010129984468221664,0.008150489069521427,0.07617057114839554,0.010462477803230286,-0.04567832872271538,0.05344189703464508,0.033369168639183044,0.004256121348589659,0.010697915218770504,-0.032885223627090454,-0.0019454298308119178,0.020115138962864876,-0.030073143541812897,0.05251220241189003,0.01811952330172062,0.006171036045998335,-0.04425663873553276,0.025082707405090332,-0.006892109289765358,0.01920635625720024,-0.0052346475422382355,-0.03522629663348198,0.0483659952878952,-0.04147231578826904,0.03126170113682747,-0.04103652015328407,0.015961822122335434,0.012204520404338837,-0.02360396832227707,0.05324696749448776,-0.018467912450432777,-0.01716516725718975,-0.02508368343114853,0.016936169937253,0.005272899754345417,0.03599154204130173,0.049651168286800385,-0.003627960104495287,0.02596830390393734,-0.0423603393137455,0.020267855376005173,0.06771186739206314,0.016255125403404236,0.013643607497215271,-0.006373038049787283,0.014444136060774326,0.003297976218163967,-0.0012180000776425004,0.05737864971160889,-0.004087636712938547,-0.04863554239273071,0.047989048063755035,0.03717653825879097,0.0033592614345252514,-0.011733977124094963,-0.025877714157104492,0.027007626369595528,-0.018945109099149704,0.049752406775951385,0.020316854119300842,0.01747978664934635,-0.04294446483254433,0.005484224762767553,-0.012695248238742352,-0.03201776742935181,0.03522621467709541,-0.029311856254935265,0.03875407576560974,-0.0016320330323651433,0.045310840010643005,0.01589041016995907,0.0007367683574557304,-0.08072768896818161,0.02093076892197132,0.01385033130645752,0.007012390065938234,-0.028192512691020966,0.009109112434089184,-0.03722885251045227,-0.08918590843677521,-0.008914364501833916,0.002727970015257597,-0.0006771090556867421,-0.023587659001350403,0.02455683797597885,0.017209483310580254,-0.020698271691799164,0.039383675903081894,0.009088353253901005,-0.037289172410964966,0.06419231742620468,0.008834070526063442,0.0255570188164711,-0.0651935562491417,-0.03172926604747772,0.06308721750974655,-0.03235709294676781]],"8771120ba6f165bb5394407b778146d0":[0.9999922017531012,[0.03917313739657402,0.053748276084661484,-0.03676433861255646,0.020952558144927025,-0.011691681109368801,0.06306295096874237,0.07124260812997818,0.023215632885694504,0.0039413911290466785,0.01832733303308487,-0.016932431608438492,0.05658791959285736,0.05226407200098038,-0.026698943227529526,-0.0015901185106486082,-0.03700735792517662,0.043584488332271576,0.03814774751663208,-0.025674931704998016,0.03111998364329338,-0.047711778432130814,-0.0027699375059455633,-0.006951113697141409,-0.0068886191584169865,-0.03631702810525894,-0.07808364927768707,0.010419467464089394,-0.013276828452944756,0.009804009459912777,-0.031200002878904343,-0.014557828195393085,0.05699469521641731,-0.003973789047449827,-0.04305464029312134,0.04327497258782387,0.04127902165055275,-0.00977368839085102,0.04646294564008713,0.006587352138012648,-0.02187020517885685,-0.07554738223552704,-0.03037068620324135,0.008078883402049541,0.041429996490478516,-0.04138661548495293,0.012326419353485107,-0.007422557566314936,0.00306901428848505,-0.05710871145129204,0.03094077669084072,0.06540939211845398,0.009108232334256172,-0.03103211335837841,-0.03017721325159073,-0.04419269785284996,-0.06446558982133865,-0.0505661778151989,-0.06054740399122238,0.07835839688777924,-0.015520954504609108,-0.06951649487018585,0.03123878687620163,-0.05029255524277687,-0.010660604573786259,-0.020463893190026283,-0.04397997260093689,-0.014795510098338127,0.01475794892758131,-0.06090571731328964,0.038510762155056,-0.00658944109454751,0.0021551521494984627,-0.06897661089897156,-0.015109301544725895,0.0057589709758758545,-0.0014776078751310706,0.0266561396420002,0.01640552282333374,0.04848313331604004,0.07076560705900192,-0.04549841210246086,-0.0268645528703928,0.03566832095384598,0.053529880940914154,0.03660526126623154,-0.001709077856503427,0.0376458503305912,0.005088157951831818,-0.06350602209568024,-0.02398989163339138,0.05344359576702118,0.048590898513793945,-0.018013210967183113,0.02372482232749462,0.06545833498239517,-0.029077131301164627,-0.08538489788770676,-0.13093075156211853,0.059254419058561325,0.04802646487951279,0.006868981756269932,-0.01935882493853569,0.012225463055074215,0.002541403751820326,0.062073130160570145,0.022154973819851875,0.015126911923289299,-0.013002797029912472,-0.09516794234514236,0.01857065223157406,0.0070771146565675735,-0.018728753551840782,0.008859182707965374,-0.005816410295665264,-0.027171079069375992,0.0012613543076440692,0.011794081889092922,0.06821192055940628,-0.037711288779973984,-0.02521725744009018,0.05567331239581108,0.032887257635593414,-0.04178532958030701,0.018908023834228516,0.07596918940544128,0.04661322385072708,0.00449084397405386,-0.0022218446247279644,-0.03236584737896919,0.009564022533595562,0.025170743465423584,-0.11707596480846405,0.012312776409089565,0.050064947456121445,0.019277725368738174,0.012992002069950104,0.03394955024123192,0.014897452667355537,0.017922965809702873,-0.01263513509184122,-0.00912313349545002,-0.03251973167061806,-0.10840845108032227,0.024307945743203163,-0.0019969011191278696,-0.04463909566402435,-0.036315612494945526,0.02955368161201477,-0.04958995431661606,0.029073327779769897,-0.05927406623959541,-0.005601010285317898,0.009843959473073483,-0.022398486733436584,-0.024285847321152687,-0.02542797289788723,-0.0024717864580452442,-0.05192079022526741,0.011215862818062305,-0.01005135104060173,0.0014539783587679267,-0.04592769593000412,0.008825733326375484,0.04753858223557472,0.016515716910362244,-0.05381239950656891,-0.041172195225954056,-0.030942169949412346,-0.0045051900669932365,-0.0006961089093238115,-0.0011575632961466908,-0.039501965045928955,-0.022254524752497673,-0.02561432681977749,-0.025513725355267525,0.01299376506358385,0.011310757137835026,-0.020387468859553337,-0.04496105760335922,0.0017367629334330559,0.09906944632530212,0.015417704358696938,0.006815461907535791,-0.01884707435965538,0.0032158493995666504,0.01909315213561058,0.02622012235224247,0.005366814788430929,0.031430747359991074,0.02822788432240486,-0.010173601098358631,-0.03229835629463196,0.03954680263996124,0.03380800411105156,0.005715388339012861,0.04404168948531151,0.03628348186612129,-0.003854871029034257,0.007684452459216118,-0.04647679254412651,0.07014542818069458,0.009814461693167686,-0.038832928985357285,0.004571696277707815,-0.009072772227227688,-0.00964664202183485,-0.06479015946388245,-0.05340114235877991,-0.008220580406486988,0.028620751574635506,-0.006287893280386925,-0.02890537492930889,-0.009253134950995445,-0.024697333574295044,0.0049853334203362465,-0.020560549572110176,0.07677455246448517,-0.020792772993445396,0.05370653420686722,-0.027166718617081642,0.01872854307293892,-0.016388023272156715,-0.03560800105333328,0.03339117020368576,0.007163090631365776,-0.010215491987764835,-0.025732258334755898,-0.026507876813411713,-0.018783174455165863,-0.03065500594675541,0.005342361982911825,0.025064770132303238,-0.015798205509781837,-0.0005698274471797049,-0.03886713460087776,0.03217749670147896,-0.006389668211340904,-0.06876790523529053,-0.05422399193048477,0.008155296556651592,0.01628751866519451,-0.03272747993469238,0.027838898822665215,-0.02441127598285675,-0.0032906299456954002,0.025363970547914505,-0.05116447061300278,0.028837166726589203,0.009564816020429134,-0.04702858254313469,0.019901370629668236,-0.0177201796323061,-0.055703990161418915,0.013324030674993992,-0.0733877494931221,-0.014181900769472122,0.022239698097109795,0.026265177875757217,-0.0051694768480956554,-0.017078962177038193,0.02116663008928299,-0.015764614567160606,0.011923718266189098,-0.07168910652399063,-0.04694579541683197,-0.11679935455322266,-0.034553397446870804,0.006120707374066114,0.030865434557199478,-0.06495752930641174,0.01510503888130188,-0.0471830852329731,-0.09368366748094559,-0.00480554299429059,-0.07560750842094421,0.0522473081946373,-0.046424951404333115,0.010032872669398785,-0.07097256928682327,-0.041857581585645676,0.04510467126965523,0.03101442940533161,0.008696364238858223,-0.032422322779893875,0.01466191466897726,-0.05492676421999931,-0.009010384790599346,-0.020973455160856247,-0.0019199933158233762,-0.05818477272987366,0.023552536964416504,0.09911063313484192,-0.04222076013684273,-0.04529130086302757,0.06584928929805756,-0.010544059798121452,0.024821629747748375,0.05956962704658508,0.04277545213699341,-0.0040255156345665455,0.02560802921652794,0.04112837836146355,-0.029360931366682053,0.047764476388692856,-0.019568929448723793,-0.008283955045044422,-0.01991695910692215,-0.005976935848593712,-0.03020070493221283,-0.00321367010474205,0.046564895659685135,0.035776641219854355,-0.024605154991149902,0.022341176867485046,-0.04980028420686722,-0.01613413728773594,-0.12284591048955917,0.0004230691120028496,-0.024218425154685974,0.001981339417397976,0.005979414563626051,0.005838061682879925,-0.05514951050281525,-0.015039014630019665,0.052696436643600464,-0.0006110737449489534,0.00382650806568563,0.02462737075984478,0.013863520696759224,-0.0225213672965765,0.047522448003292084,0.008738525211811066,-0.044944360852241516,-0.06226946786046028,-0.01720050722360611,0.016821645200252533,-0.04551294818520546,0.007203687448054552,0.07640566676855087,0.05263834446668625,0.021760698407888412,0.013617703691124916,0.011406270787119865,0.03522969409823418,0.008328070864081383,-0.02792266011238098,0.01822182722389698,-0.022021686658263206,0.007513223681598902,0.014104736968874931,0.038342900574207306,0.06419792771339417,-0.001102462294511497,-0.015480872243642807,-0.0055726803839206696,-0.008830096572637558,0.05051259323954582,-0.012819263152778149,0.0001605549914529547,-0.029903288930654526,-0.024937370792031288,0.02796795219182968,0.0024488051421940327,0.025791075080633163,-0.008768032304942608,-0.02044188603758812,0.021650221198797226,0.060401272028684616,-0.005829292815178633,0.013955313712358475,0.007376366760581732,0.003514248877763748,0.02994532883167267,-0.006927684415131807,0.03655872866511345,-0.04686272144317627,-0.00022427289513871074,0.03972054272890091,0.04567781463265419,-0.05064940080046654,0.01135967206209898,-0.02414136752486229,-0.007747051306068897,0.014681153930723667,0.020001644268631935,0.062080707401037216,-0.07308980077505112,0.00662975525483489,0.0011107379104942083,0.0010371962562203407,-0.037069909274578094,0.03456980362534523,-0.005197629332542419,0.0072981081902980804,-0.004391142632812262,0.04521520808339119,-0.017031723633408546,0.04107492417097092,0.006110673304647207,0.023306293413043022,-0.07912977784872055,0.017898980528116226,0.07842057943344116,-0.011422979645431042,0.005544649437069893,-0.015410806983709335,0.04079494997859001,0.026684297248721123,-0.05232298746705055,0.022185182198882103,-0.015418634749948978,-0.059794314205646515,-0.018408581614494324,0.005727288778871298,-0.043488189578056335,-0.024590494111180305,0.05579838156700134,-0.021427692845463753,0.011697874404489994,0.07268818467855453,0.01849718764424324,0.02763514220714569,0.0468442477285862,0.031878456473350525,-0.03345518559217453,-0.07119577378034592,-0.023885713890194893,-0.013127431273460388,-0.006412952672690153,-0.020327331498265266,-0.0011441250098869205,0.048974841833114624,-0.04311302304267883,-0.02286597713828087,-0.017587868496775627,-0.007296762429177761,-0.01616954244673252,-0.019278015941381454,-0.019035935401916504,0.019379278644919395,0.026142312213778496,0.04051323980093002,0.03266771882772446,0.017329677939414978,-0.006781557109206915,0.01712888851761818,0.024814995005726814,0.03451866656541824,-0.023111417889595032,-0.05374056473374367,-0.0380876250565052,0.023497020825743675,0.018295854330062866,-0.08353284746408463,-0.06643456220626831,0.031398359686136246,0.02790740877389908,-0.003628987818956375,0.011327985674142838,-0.0325792022049427,-0.06825210899114609,-0.02845197543501854,0.051203809678554535,-0.021176829934120178,0.03118160367012024,-0.0121269840747118,-0.009517165832221508,0.021801138296723366,-0.04353037849068642,-0.04296349734067917,0.03710118681192398,0.008799889124929905,0.018472788855433464,0.012319650501012802,-0.030985426157712936,0.03198736160993576,0.032113488763570786,0.016798995435237885,0.0469689816236496,0.031182637438178062,-0.03267545998096466,0.03204980120062828,-0.035290926694869995,0.04716021195054054,0.06009354069828987,-0.03207012265920639,-0.02810084819793701,-0.0025927419774234295,0.03834788501262665,-0.03233656287193298,0.02478005550801754,0.024323074147105217,-0.032845091074705124,-0.052345454692840576,0.01583232544362545,0.0026443118695169687,0.07273895293474197,-0.040398258715867996,0.013496091589331627,0.029689045622944832,0.05149593949317932,-0.006315060891211033,-0.013557584024965763,-0.0438615046441555,-0.021251820027828217,0.009764942340552807,0.009142079390585423,-0.03543451428413391,0.05733078345656395,0.06604369729757309,0.06188088655471802,0.003239560639485717,0.002562411595135927,0.050752006471157074,-0.04704916477203369,-0.0028698835521936417,-0.05012021213769913,0.00716740358620882,-0.01737792231142521,0.02413610741496086,-0.005122865550220013,-0.05758155509829521,0.020511474460363388,-0.018649302423000336,0.01110539399087429,-0.011443362571299076,0.020507775247097015,-0.014187443070113659,0.02669869363307953,-0.0006973067647777498,-0.006735067814588547,0.08315598964691162,0.04593119025230408,0.01822248473763466,0.04331855848431587,0.039505645632743835,0.03157654032111168,-0.008851784281432629,0.03569431230425835,0.020928703248500824,0.0030410708859562874,-0.030884694308042526,0.03473476320505142,0.005432132165879011,0.05585818365216255,0.014562810771167278,-0.0018984130583703518,0.024794889613986015,0.01674206182360649,0.06430476903915405,0.004866492003202438,-0.05047738924622536,-0.0016493292059749365,0.020299101248383522,-0.012656827457249165,-0.04393589124083519,0.08076194673776627,0.013464878313243389,-0.01810288242995739,-0.0181638952344656,0.012993625365197659,-0.036439474672079086,-0.03415199741721153,0.00695377541705966,-0.015676798298954964,-0.01755950227379799,-0.026692301034927368,0.05607227981090546,-0.010263517498970032,-0.011286238208413124,0.005319039337337017,0.01823805272579193,0.016322072595357895,-0.02084748074412346,0.008353038690984249,-0.01629241369664669,-0.05695873871445656,-0.014030540362000465,0.014309888705611229,0.011460755951702595,0.022417059168219566,0.008010254241526127,0.05149099975824356,-0.012330872938036919,-0.006850824225693941,0.007399735040962696,0.03115156665444374,-0.030856531113386154,0.02540438622236252,0.020667703822255135,-0.01495248544961214,0.050788044929504395,0.002313660690560937,-0.0807056874036789,0.03398706391453743,-0.033154554665088654,-0.03690541908144951,-0.02399042621254921,-0.00502448994666338,-0.00802174024283886,0.015005902387201786,-0.008082919754087925,0.021382955834269524,0.001363883027806878,-0.018792452290654182,-0.08121678978204727,-0.05072418972849846,-0.07825053483247757,0.023685147985816002,0.054455239325761795,-0.005926544312387705,0.031306639313697815,0.004626196809113026,-0.06527514010667801,-0.0713658332824707,0.024306803941726685,-0.04296954721212387,-0.014261667616665363,0.02645018883049488,0.025412531569600105,-0.01932058483362198,0.04079330712556839,-0.011494423262774944,-0.02309643104672432,-0.029588883742690086,-0.03998454660177231,-0.01808162033557892,-0.0050010886043310165,0.012260169722139835,-0.022741476073861122,-0.012916093692183495,0.02376832254230976,0.02670746110379696,-0.020161082968115807,-0.02109684608876705,-0.0038796700537204742,0.004445668309926987,-0.0052330209873616695,0.03710561618208885,-0.0922238826751709,0.03693367913365364,0.08020269870758057,0.08618360757827759,0.004352271091192961,-0.05812586098909378,0.001905012526549399,0.016515007242560387,0.041440121829509735,-0.003980112727731466,0.0051404754631221294,-0.03378414362668991,0.054253846406936646,-0.020743444561958313,0.009272875264286995,-0.04115994647145271,-0.027878176420927048,-0.034384362399578094,-0.033288925886154175,0.0293232761323452,-0.043981023132801056,-0.016401605680584908,-0.021173330023884773,0.007537251804023981,0.018879352137446404,-0.028775494545698166,-0.044133663177490234,-0.0445195734500885,-0.016888540238142014,0.0053297062404453754,-0.020210040733218193,-0.0007769615040160716,-0.057881854474544525,0.01132354699075222,0.03867873549461365,-0.011710749007761478,-0.04615824297070503,0.06242645904421806,0.02273910865187645,-0.022161178290843964,0.016115831211209297,-0.008718922734260559,-0.025754442438483238,0.025239568203687668,-0.01938043162226677,0.0028889186214655638,0.0025806939229369164,0.011930655688047409,-0.012383311055600643,0.011752177961170673,0.024128301069140434,-0.045526061207056046,-0.04436984285712242,-0.023702194914221764,0.006337618920952082,-0.03673223778605461,0.030007952824234962,-0.057872358709573746,-0.014083893969655037,-0.0064565399661660194,-0.020315444096922874,0.014575880952179432,-0.029413968324661255,-0.04536343365907669,-0.001264700316824019,0.003602256765589118,0.05562923848628998,0.048037875443696976,0.04263695329427719,-0.03029603697359562,0.039228495210409164,-0.04987208545207977,0.07108417898416519,0.06610610336065292,-0.041282836347818375,0.023344174027442932,0.007866144180297852,0.022069720551371574,0.00821991078555584,0.011166212148964405,0.005537640303373337,0.024249734356999397,-0.04975832253694534,0.03981195017695427,0.052968062460422516,0.01086763758212328,-0.009414033964276314,-0.0393204502761364,-0.0033108789939433336,-0.013794505037367344,0.03501258045434952,0.030170336365699768,-0.012481204234063625,-0.016291307285428047,-0.012526857666671276,0.016867440193891525,-0.05784090608358383,0.025845371186733246,-0.03558274358510971,-0.002186084631830454,-0.0008596664411015809,0.02397983893752098,-0.0007957545458339155,-0.03247770294547081,-0.04893656447529793,0.03234851732850075,0.044391386210918427,-0.01579185575246811,-0.01652858406305313,0.0003416654944885522,-0.014346377924084663,-0.08964002877473831,0.002784847281873226,0.014643159694969654,0.0188999492675066,-0.004983960185199976,0.017895488068461418,-0.008936423808336258,-0.026778684929013252,0.03876793012022972,-0.021837333217263222,-0.006375153549015522,0.07393121719360352,-0.0119854174554348,0.022333752363920212,-0.0906953439116478,-0.00687342369928956,0.04777549207210541,-0.047748640179634094]],"ceb5e5ba11912824e8a275bfe30d6412":[0.9999823776361154,[0.012985801324248314,0.08425953984260559,-0.06440456211566925,-0.002200808608904481,0.003340526018291712,0.05928713083267212,0.06533588469028473,0.02088543027639389,-0.003620825009420514,0.029764436185359955,-0.029893532395362854,0.0668717473745346,0.059983547776937485,-0.005118999630212784,-0.01178797148168087,-0.05058136209845543,0.004433523863554001,0.04596235975623131,-0.0671125054359436,-0.022170552983880043,-0.02684134617447853,0.01865573786199093,0.027983900159597397,-0.005721944384276867,-0.02596273086965084,-0.030240602791309357,0.014053786173462868,-0.02217971906065941,-0.0071851653046905994,-0.021387482061982155,0.010564705356955528,0.031162478029727936,0.0026697951834648848,-0.011012970469892025,0.047089584171772,0.05713864415884018,0.0023875627666711807,0.08925485610961914,0.003119374392554164,-0.09049318730831146,-0.05074264481663704,-0.03190897777676582,-0.024497216567397118,0.02394651062786579,-0.02555706538259983,-0.044513292610645294,-0.016469880938529968,0.020112592726945877,-0.08821478486061096,0.020412353798747063,0.03246025741100311,-0.0181385800242424,-0.02250022254884243,-0.009585993364453316,-0.049174390733242035,-0.048071011900901794,-0.036642469465732574,-0.03851182758808136,0.06005841866135597,-0.023080965504050255,-0.1160312220454216,-0.004356899298727512,-0.05495794862508774,-0.042479053139686584,-0.012010769918560982,0.011455689556896687,-0.01725122705101967,0.012414942495524883,-0.05976799875497818,0.002294053789228201,0.004248528275638819,0.0276971273124218,-0.04432015120983124,-0.026161830872297287,0.022310780361294746,-0.013103777542710304,0.030083833262324333,-0.011799503117799759,0.05658644065260887,0.048749662935733795,-0.03252832591533661,0.0027614778373390436,0.05101614072918892,0.0714479312300682,0.03338412940502167,0.024149585515260696,0.032396718859672546,-0.016425970941781998,-0.07319392263889313,-0.05236072093248367,0.04958544299006462,0.0090957535430789,-0.04131121188402176,-0.030464302748441696,0.06223946064710617,-0.05403551831841469,-0.07676122337579727,-0.13964198529720306,0.03370898589491844,0.08392231166362762,-0.0026254933327436447,-0.004461830016225576,-0.016786502674221992,-0.04477560147643089,0.025278687477111816,0.00551013695076108,-0.011810801923274994,-0.015183882787823677,-0.11180984973907471,0.014646816998720169,0.01140080951154232,-0.023720990866422653,0.023913173004984856,-0.02755860611796379,-0.011941593140363693,0.011046384461224079,0.03771919384598732,0.050358545035123825,-0.027209710329771042,-0.04119746387004852,0.01769207790493965,0.03743523731827736,-0.01465314906090498,0.03790010139346123,0.06926130503416061,-0.0036965268664062023,-0.03131914511322975,-0.00607463251799345,0.030882228165864944,0.015555605292320251,0.03099021129310131,-0.06832963973283768,-0.004117237403988838,0.04328656196594238,0.006544007919728756,0.03879750892519951,0.02920125052332878,0.012616479769349098,0.012254332192242146,0.005409345496445894,-0.025119386613368988,-0.01387399435043335,-0.10007423162460327,0.02858959324657917,0.0015192236751317978,-0.0451076440513134,-0.008329587057232857,0.05096760392189026,-0.011329046450555325,0.009156040847301483,-0.047836024314165115,0.02816634625196457,0.037886399775743484,-0.060075730085372925,-0.01891063153743744,-0.0142743531614542,0.005755318328738213,-0.060807328671216965,-0.0012421547435224056,-0.003742397762835026,0.0315118208527565,-0.03620868921279907,0.01771438680589199,0.049787264317274094,-0.016904549673199654,-0.08084142208099365,-0.06085381656885147,-0.07878360897302628,0.016034673899412155,-0.03072727471590042,-0.023950915783643723,-0.03424957022070885,-0.073543980717659,-0.0446355976164341,0.011614876799285412,-0.0070698922500014305,-0.01674114726483822,-0.021689288318157196,-0.05133151262998581,0.009505974128842354,0.07343492656946182,0.022647356614470482,0.009553845971822739,-0.007867179811000824,-0.008020044304430485,0.0034749824553728104,0.01341785304248333,0.02211182750761509,0.041994597762823105,0.06710407882928848,0.0045661344192922115,-0.022834638133645058,0.029722359031438828,0.029481103643774986,-0.012159711681306362,0.051121484488248825,0.04811881482601166,-0.03801034390926361,-0.029087448492646217,-0.01788727380335331,0.032514654099941254,0.02279030531644821,-0.029561199247837067,0.00999362487345934,-0.011760502122342587,-0.002621019957587123,-0.05219106376171112,-0.0568121001124382,0.004408190958201885,0.027065590023994446,0.022243520244956017,-0.02967839315533638,0.02300427109003067,0.017584482207894325,-0.00901323463767767,-0.009102818556129932,0.05020607262849808,-0.04199590906500816,0.0843110904097557,-0.018123650923371315,-0.007058442570269108,0.011824190616607666,-0.02564660646021366,0.0693492740392685,0.02125605195760727,-0.030516207218170166,-0.030442317947745323,-0.015436079353094101,-0.0260803010314703,-0.031391628086566925,-0.0051546040922403336,0.019921433180570602,-0.01427159272134304,-0.007313272450119257,-0.04083579033613205,0.035540785640478134,0.015683094039559364,-0.07348756492137909,-0.06673319637775421,0.02125132828950882,0.022999506443738937,-0.04169495776295662,0.05505240336060524,-0.027711307629942894,0.02446114830672741,0.009812300093472004,0.007552505936473608,0.015316683799028397,0.011025402694940567,-0.02431599050760269,-0.0033442263957113028,-0.02266649343073368,-0.0763237327337265,-0.00673197815194726,-0.06721912324428558,0.0035712860990315676,0.031352847814559937,-0.00621744804084301,0.0006830869824625552,0.013900364749133587,0.023443827405571938,-0.017053211107850075,0.0062920465134084225,-0.051352061331272125,-0.0646991953253746,-0.07628517597913742,-0.015145340003073215,-0.005300246179103851,0.031242886558175087,-0.05001072585582733,0.02525830827653408,-0.0382734090089798,-0.07110942155122757,0.005374784115701914,-0.02395753748714924,0.03880702331662178,-0.026535337790846825,0.003466368652880192,-0.012655873782932758,-0.045750681310892105,0.0409138984978199,0.0038515739142894745,-0.010045943781733513,-0.012902502901852131,0.02331906370818615,-0.045073848217725754,-0.02157178707420826,-0.005955214612185955,0.007709660101681948,0.0007584503619000316,0.03562839329242706,0.07611629366874695,-0.001580786774866283,-0.03269685432314873,0.06333854049444199,-0.024084946140646935,0.053938210010528564,0.06354299932718277,0.018520429730415344,0.013271192088723183,0.02881663851439953,0.02544182725250721,-0.02647240087389946,0.022507337853312492,-0.016797246411442757,-0.0166257843375206,-0.040759772062301636,-0.020101407542824745,-0.02025972492992878,0.005024499725550413,0.04971036687493324,0.06298355013132095,-0.04761884734034538,0.04750367999076843,-0.0365479402244091,-0.005630818661302328,-0.15127892792224884,-0.017787817865610123,-0.026539696380496025,0.0014096705708652735,0.007925065234303474,0.005368066485971212,-0.08192557096481323,-0.01997385546565056,0.03254814073443413,-0.032807379961013794,-0.026980403810739517,0.026876019313931465,0.0201223473995924,0.011539090424776077,0.04089425876736641,-0.020803963765501976,-0.04125474765896797,-0.013438008725643158,-0.007396734785288572,0.0051811630837619305,-0.06991215795278549,-0.0007180720567703247,0.028296878561377525,0.05248056352138519,0.027419714257121086,0.0026438215281814337,0.011121468618512154,0.021556004881858826,0.017512202262878418,-0.06718681752681732,0.017542460933327675,-0.04864192754030228,-0.02992326393723488,0.03055373765528202,0.02997380495071411,0.04215984791517258,-0.025662817060947418,-0.028580522164702415,0.017131710425019264,-0.00872120726853609,0.03932712599635124,0.000679799122735858,-0.005612935405224562,-0.011889883317053318,-0.009304748848080635,0.013034895062446594,-0.008882437832653522,0.026632314547896385,0.00047483836533501744,-0.01114711444824934,0.04864305257797241,0.04613213241100311,-0.044220712035894394,0.011483637616038322,0.00894291140139103,0.00019497427274473011,0.0015171791892498732,0.00120600126683712,0.011782453395426273,-0.0206461139023304,-0.020926468074321747,0.011235978454351425,0.0340656116604805,-0.04836456477642059,-0.02646184340119362,-0.04143284633755684,-0.012485808692872524,0.030677106231451035,-0.005255207885056734,0.07882983982563019,-0.06136882305145264,0.02144966647028923,-0.011053916066884995,0.008703833445906639,-0.03585276007652283,0.01906965672969818,0.005180723965167999,0.01977858692407608,0.0017165576573461294,0.04150359332561493,-0.00263616512529552,0.02017897553741932,-0.005712357349693775,0.04222512245178223,-0.059650104492902756,0.004016363061964512,0.07200493663549423,-0.020309578627347946,-0.006132073234766722,-0.031818319112062454,0.07069654762744904,-0.002042267005890608,-0.044459905475378036,0.037913914769887924,0.004876165185123682,-0.06517072767019272,-0.013091844506561756,0.02390090748667717,-0.002973215188831091,-0.01844887062907219,0.008403516374528408,-0.01259837206453085,0.03239985182881355,0.06161177530884743,0.0046441624872386456,0.016771897673606873,0.07239633053541183,0.07637147605419159,-0.03510491922497749,-0.060444120317697525,0.001901971292681992,-0.00755940331146121,0.010037804953753948,-0.03263688459992409,0.03591199964284897,0.037533070892095566,0.006559011060744524,-0.006802222691476345,0.003477266523987055,0.0026240579318255186,-0.03147639334201813,-0.0681704729795456,-0.021199725568294525,0.02132524736225605,-0.011154244653880596,0.021931082010269165,0.05861837416887283,0.022374354302883148,-0.029671674594283104,0.02315741591155529,-0.02220463566482067,0.014945050701498985,0.023907802999019623,-0.07043658941984177,-0.010562428273260593,-0.02127794548869133,0.023815087974071503,-0.06824217736721039,-0.10368190705776215,0.02703602984547615,0.0042868624441325665,0.010890458710491657,-0.009381351992487907,0.003517925040796399,-0.04376699775457382,-0.010478713549673557,0.051112618297338486,-0.02013307437300682,0.012420273385941982,-0.03785685449838638,-0.05236973613500595,0.028523197397589684,-0.03318830206990242,-0.022036608308553696,0.018168453127145767,0.0037309497129172087,0.05131932720541954,-0.011845423839986324,-0.017938924953341484,0.004364387132227421,0.06406044960021973,0.029087375849485397,0.012861372902989388,0.01917446404695511,-0.03955530375242233,0.03667686879634857,-0.013387536630034447,0.02465955913066864,0.06619685888290405,-0.006521943490952253,-0.045580726116895676,-0.009942138567566872,0.015211899764835835,-0.021934136748313904,0.0361313559114933,0.023599816486239433,-0.01890338771045208,-0.01306962314993143,0.028826309368014336,-0.0013340350706130266,0.056968800723552704,-0.005189555697143078,-0.01135022658854723,0.02189537137746811,0.04848671332001686,0.009715846739709377,-0.005019224248826504,-0.030289506539702415,-0.01710263267159462,-0.010174603201448917,-0.009831820614635944,-0.05161646008491516,0.05499124526977539,0.042850561439991,0.020904172211885452,-0.017592784017324448,0.019927503541111946,-0.004536407068371773,-0.046525828540325165,-0.013276491314172745,-0.056014612317085266,0.02137638069689274,-0.009737757034599781,0.061483241617679596,0.0034821394365280867,-0.03913726285099983,-0.02183753438293934,-0.013611349277198315,0.00008176275878213346,0.016214793547987938,0.022369029000401497,-0.00031339141423814,0.01982857845723629,-0.005288189277052879,-0.03501414507627487,0.06025971099734306,0.037941690534353256,0.035142362117767334,0.037735309451818466,0.0609772689640522,0.04461311921477318,0.022677559405565262,0.052807264029979706,0.024458685889840126,0.015742914751172066,0.03376512601971626,0.004850552882999182,0.010042790323495865,0.04120879992842674,0.012360130436718464,0.007796416059136391,0.01922164484858513,-0.03250674158334732,0.04492345079779625,0.00901821255683899,-0.03539671748876572,-0.031160764396190643,0.03405040502548218,0.009736775420606136,-0.03155970945954323,0.04999092221260071,0.01928004063665867,-0.03086065873503685,-0.020073888823390007,0.027279166504740715,-0.036221425980329514,0.0184309184551239,-0.009367256425321102,-0.015715517103672028,-0.0160104688256979,-0.012084358371794224,0.02646021544933319,-0.008265509270131588,0.021668294444680214,0.011900322511792183,0.021545104682445526,-0.006001497618854046,-0.02372022345662117,0.03790804371237755,-0.005528303794562817,-0.037753522396087646,-0.005531103815883398,0.01304465439170599,0.001768964808434248,-0.0300455279648304,0.0001645543670747429,0.07042492926120758,0.0017295655561611056,-0.04305589571595192,-0.018098901957273483,-0.00017082317208405584,-0.011543452739715576,0.04251207038760185,0.049817413091659546,-0.022916452959179878,0.03983370214700699,-0.004271457437425852,-0.083219975233078,0.021190498024225235,-0.03372211009263992,-0.01925778202712536,-0.017239954322576523,0.004838093649595976,-0.014357071369886398,0.026663972064852715,-0.019856158643960953,0.03209688141942024,-0.04288167133927345,-0.027958514168858528,-0.07641400396823883,-0.057409923523664474,-0.10015299916267395,0.014117571525275707,0.05655254051089287,-0.02269449271261692,0.020360007882118225,-0.0018663837108761072,-0.04469745606184006,-0.05389890447258949,-0.012991974130272865,-0.05352918058633804,-0.00032934025512076914,0.05193487927317619,0.06294425576925278,-0.020737143233418465,0.014010700397193432,-0.0321672149002552,-0.011659305542707443,-0.04757934436202049,-0.005501010455191135,-0.01805928163230419,-0.012631396763026714,0.031071461737155914,-0.021834159269928932,-0.016813384369015694,0.013435784727334976,0.030174927785992622,-0.006278978195041418,-0.013956480659544468,-0.0005064423894509673,-0.004064530599862337,0.0040737357921898365,0.03279677778482437,-0.06905370205640793,0.010925247333943844,0.07252947241067886,0.062424059957265854,-0.0031815259717404842,-0.06719581037759781,0.007384853437542915,-0.001137227052822709,0.036478668451309204,-0.017218180000782013,0.03686625137925148,-0.0023952617775648832,0.052297983318567276,-0.00914138276129961,0.03190242499113083,-0.048411328345537186,-0.00030889594927430153,-0.011819637380540371,-0.021906042471528053,-0.020385505631566048,-0.014724671840667725,-0.027213741093873978,-0.04470645636320114,0.014951756224036217,-0.0020467108115553856,-0.059832002967596054,-0.007530572824180126,-0.07056237757205963,-0.011767322197556496,-0.021860137581825256,-0.030224798247218132,0.0030819883104413748,-0.029813993722200394,0.007763137575238943,0.062167469412088394,0.009150546975433826,-0.0659060850739479,0.037169136106967926,0.01580481417477131,-0.0415676049888134,0.020469030365347862,-0.0012459816643968225,-0.034139908850193024,0.011412089690566063,-0.05010160058736801,-0.004098289646208286,0.03164021298289299,0.02475850097835064,-0.014814697206020355,0.0126797491684556,0.007160560227930546,0.0022072140127420425,-0.027174493297934532,0.010307670570909977,0.037722330540418625,-0.06027965620160103,0.06162577494978905,-0.04554065689444542,0.0025238750968128443,0.0072722602635622025,-0.014707661233842373,-0.010323304682970047,-0.01659931056201458,-0.028818657621741295,-0.007058083079755306,0.01972336135804653,0.04847767576575279,0.07481729239225388,0.01877693645656109,-0.008745511993765831,0.016199324280023575,-0.028446612879633904,0.04392021521925926,0.046649325639009476,-0.027449987828731537,0.012419980950653553,0.03150087594985962,0.009350485168397427,0.013901524245738983,0.02555321529507637,0.0016009645769372582,-0.008812624961137772,-0.036171820014715195,0.05087905377149582,0.03256002441048622,0.008902506902813911,-0.01698308438062668,-0.0635785460472107,0.007703208364546299,-0.025231314823031425,0.03553280979394913,0.015408727340400219,-0.010652088560163975,-0.03254219889640808,-0.02188623696565628,-0.024715058505535126,-0.019449779763817787,0.051612287759780884,-0.044342704117298126,0.015244008041918278,-0.0025437003932893276,0.07368434220552444,-0.0046056234277784824,-0.03103475831449032,-0.03590736165642738,0.03383100405335426,0.05702261999249458,0.018678631633520126,-0.035657960921525955,-0.00988027174025774,-0.026128213852643967,-0.08911316841840744,-0.010391224175691605,0.02368338592350483,-0.024870645254850388,0.0026724664494395256,-0.020388012751936913,-0.015322406776249409,-0.05161232128739357,0.0523628406226635,-0.024223387241363525,-0.006369385402649641,0.07374198734760284,-0.021528715267777443,0.006150534376502037,-0.10442450642585754,-0.0005395059706643224,0.06937719881534576,-0.04832146316766739]],"41b851e64bfc61b247497e62edee2a19":[0.9999883588310432,[0.010222109965980053,0.0809514969587326,-0.06204714626073837,0.031928837299346924,-0.005612251348793507,0.06935783475637436,0.047226764261722565,0.019369445741176605,0.025363577529788017,0.003488793270662427,-0.030636658892035484,0.056399229913949966,0.09038228541612625,0.0193930696696043,-0.04253460094332695,-0.05628141760826111,0.04711955785751343,0.05825693532824516,-0.007002508267760277,-0.013281031511723995,-0.017479682341217995,0.02291291393339634,-0.0015650675632059574,-0.0046910387463867664,-0.01571018248796463,-0.015206030569970608,0.01383828092366457,-0.022243928164243698,0.012840512208640575,-0.04900349676609039,-0.0002565068134572357,0.025889402255415916,0.03030792437493801,-0.046665240079164505,0.0368216298520565,0.057749632745981216,0.015546461567282677,0.07197409868240356,0.010711612179875374,-0.028689268976449966,-0.07140205055475235,-0.03269227594137192,-0.035174641758203506,0.009162104688584805,-0.017016524448990822,-0.01890634559094906,-0.011727539822459221,0.03790898621082306,-0.09320436418056488,0.04001099243760109,0.03512225300073624,0.014726605266332626,-0.040688805282115936,-0.017201965674757957,-0.0600816048681736,-0.03159596771001816,-0.004228363744914532,-0.04490228369832039,0.018810449168086052,-0.019936874508857727,-0.08810044080018997,-0.016172274947166443,-0.03670085594058037,-0.023862069472670555,-0.01230715773999691,0.008159523829817772,-0.007266706321388483,-0.019266556948423386,-0.07501037418842316,0.052017439156770706,-0.011202066205441952,0.04239658638834953,-0.0690469741821289,-0.0038494688924402,0.00048236423754133284,-0.01760214753448963,0.027768438681960106,-0.04538476839661598,0.07507580518722534,0.039929747581481934,-0.0464143306016922,-0.010048738680779934,0.06222753971815109,0.07629376649856567,0.03183417394757271,0.02112581580877304,0.00014393201854545623,-0.0016000864561647177,-0.07718703895807266,-0.0462397076189518,0.026841413229703903,-0.008448859676718712,-0.04094856604933739,-0.03374512866139412,0.09926844388246536,-0.05835159868001938,-0.05697182938456535,-0.0899382159113884,0.01475046668201685,0.03628982603549957,-0.011289259418845177,-0.011074968613684177,-0.021097389981150627,-0.037382785230875015,0.004755052737891674,0.018691524863243103,-0.01693582534790039,-0.022206516936421394,-0.09630807489156723,-0.012894988059997559,0.0049179932102561,-0.03214813768863678,0.025592707097530365,-0.01922312192618847,-0.05904054269194603,-0.0020875593181699514,0.019188012927770615,0.03960902988910675,-0.03131133317947388,-0.06027672812342644,0.016842450946569443,0.03592681512236595,-0.009256411343812943,0.054317671805620193,0.08298656344413757,-0.015512547455728054,-0.03649640083312988,-0.017819201573729515,0.0035436886828392744,-0.029540499672293663,0.06696869432926178,-0.06365649402141571,-0.021894212812185287,0.04676254838705063,-0.009069212712347507,0.012655353173613548,0.030198652297258377,0.007165135350078344,0.020489003509283066,0.03956066071987152,-0.029692409560084343,-0.023387223482131958,-0.10025384277105331,-0.001426573726348579,-0.02755231410264969,-0.014101402834057808,-0.05007783696055412,0.011804351583123207,-0.039104219526052475,0.03884446248412132,-0.03453869745135307,0.023448677733540535,0.027368541806936264,-0.039387814700603485,-0.019243335351347923,0.004147763829678297,0.004290423821657896,-0.04600590839982033,0.007072911597788334,0.018349329009652138,0.006505654659122229,-0.025578221306204796,0.03051740862429142,0.01707279309630394,0.0014948691241443157,-0.073715440928936,-0.07311366498470306,-0.05370934307575226,0.01018921285867691,-0.014102955348789692,-0.05159216374158859,-0.028319215402007103,-0.10074374079704285,-0.04987841099500656,0.027591928839683533,0.027111534029245377,-0.00014897799701429904,-0.04247367009520531,-0.046017762273550034,-0.004552050959318876,0.0897277370095253,0.028402356430888176,0.004711473360657692,-0.03354762867093086,0.014200819656252861,0.018399272114038467,-0.011233915574848652,0.0423421785235405,0.029477586969733238,0.036422137171030045,0.0024814989883452654,-0.03938264027237892,0.04673332720994949,0.030843203887343407,0.02733512595295906,0.008368811570107937,0.04755755513906479,-0.037833504378795624,-0.0343521311879158,-0.0027533252723515034,0.06185649707913399,-0.003872036235406995,-0.032479360699653625,0.010002801194787025,-0.01288586389273405,-0.005158194340765476,-0.06246274709701538,-0.0909498929977417,-0.002897287718951702,0.01916293427348137,-0.010284928604960442,-0.02465861290693283,0.03248996287584305,-0.0019393526017665863,-0.01992490328848362,-0.002176061272621155,0.009651280008256435,-0.060215938836336136,0.07380945235490799,-0.014994929544627666,0.026690462604165077,-0.0016149500152096152,-0.022127635776996613,0.03658011555671692,-0.008834938518702984,-0.025618722662329674,-0.04551265761256218,-0.004520028363913298,-0.007591697853058577,-0.056542713195085526,0.00041527432040311396,0.04658876731991768,-0.014425371773540974,0.003564197802916169,-0.03629070147871971,0.013871450908482075,0.005736593622714281,-0.08174016326665878,-0.0920303612947464,0.0033835144713521004,0.014661317691206932,-0.010046976618468761,0.016089312732219696,-0.06020127236843109,0.05863483250141144,0.018321478739380836,0.014276960864663124,-0.0015332966577261686,-0.021064896136522293,0.003330792300403118,-0.022527871653437614,-0.011764565482735634,-0.07223058491945267,0.0027746318373829126,-0.08534297347068787,0.01352013275027275,0.056696996092796326,-0.015269309282302856,0.013364357873797417,0.019511666148900986,-0.0011030022287741303,-0.04382840171456337,0.013042382895946503,-0.03407096117734909,-0.07104462385177612,-0.05739200860261917,-0.005597988143563271,-0.030976658686995506,0.015533097088336945,-0.058853164315223694,-0.0035269821528345346,-0.029993915930390358,-0.0876140370965004,-0.01012316532433033,-0.007676273584365845,0.05475086718797684,-0.029382575303316116,-0.0011580847203731537,-0.019005954265594482,-0.04375337436795235,0.046831753104925156,0.015050414018332958,0.022119030356407166,-0.0346660390496254,0.026732057332992554,-0.05272988975048065,-0.016505014151334763,0.017112087458372116,-0.01336766965687275,-0.01164295058697462,0.04117780923843384,0.038346435874700546,-0.011425702832639217,-0.02126564085483551,0.068791963160038,-0.020327147096395493,0.052144855260849,0.06688527017831802,0.042509082704782486,0.022555597126483917,0.038777075707912445,0.025499338284134865,-0.003267830004915595,-0.009175675921142101,0.014355319552123547,-0.004263734444975853,-0.020787404850125313,-0.035291753709316254,0.00451824301853776,0.0072297570295631886,0.026165271177887917,0.052347611635923386,-0.05817556753754616,0.033288806676864624,-0.027171380817890167,-0.03749905899167061,-0.16247418522834778,-0.02983805164694786,-0.037681419402360916,0.02435239590704441,0.0154062295332551,0.0023103859275579453,-0.05952630192041397,-0.03813023865222931,0.03969354182481766,-0.01953868754208088,0.003953177481889725,0.04156624153256416,0.011839698068797588,0.007466820999979973,0.05288301780819893,-0.0339091531932354,-0.04247942939400673,-0.01733960025012493,0.004016330000013113,0.0025873100385069847,-0.07752582430839539,-0.016655297949910164,0.053480640053749084,0.023754287511110306,0.02637360990047455,-0.01475011557340622,0.02236013300716877,0.015864625573158264,0.011648059822618961,-0.049386993050575256,0.0217569712549448,-0.012982680462300777,-0.038509197533130646,0.009196248836815357,0.050660401582717896,0.03695425018668175,-0.03690313175320625,-0.04735257476568222,0.037722863256931305,0.007951218634843826,0.08794934302568436,-0.010111452080309391,0.007268383167684078,-0.025426527485251427,-0.006514780689030886,0.018068840727210045,-0.011475981213152409,0.05941455066204071,0.008739450946450233,-0.014806673862040043,0.02887868881225586,0.0418742410838604,-0.014206933788955212,-0.005086942110210657,0.0016478479374200106,0.026319753378629684,-0.019133787602186203,-0.00504339300096035,0.0029797591269016266,-0.018340028822422028,-0.012257426045835018,-0.015143504366278648,0.04846107214689255,-0.029882855713367462,-0.02333999238908291,-0.018455784767866135,-0.012674971483647823,0.015753336250782013,-0.010548483580350876,0.04785538092255592,-0.039479583501815796,0.001673488412052393,-0.02266096882522106,0.009618842974305153,-0.028992824256420135,0.043979182839393616,-0.022902196273207664,0.002657741541042924,-0.030546074733138084,0.0018308189464733005,-0.01090207602828741,0.026101119816303253,-0.013193734921514988,0.020390547811985016,-0.09599030762910843,0.0209991205483675,0.07273750752210617,-0.029183104634284973,-0.030352391302585602,-0.034062597900629044,0.06323397904634476,-0.013723312877118587,-0.02638908475637436,0.011392394080758095,0.002854206832125783,-0.04938195273280144,-0.004783319309353828,0.04200233891606331,0.002682781545445323,-0.0011302299099043012,-0.007549938280135393,-0.0050195688381791115,-0.003914102911949158,0.04275340214371681,-0.009211912751197815,0.044350847601890564,0.07914340496063232,0.026701794937253,-0.0005964988376945257,-0.05664500966668129,-0.01156002376228571,0.020956894382834435,0.016492122784256935,-0.03145692124962807,0.05081268027424812,0.0680050402879715,0.0016010536346584558,0.00021320770611055195,0.016241595149040222,0.03415026515722275,-0.02775774896144867,-0.04855901002883911,-0.03368960693478584,0.01912311464548111,-0.014720723032951355,0.013978860341012478,0.026217367500066757,0.004673721734434366,-0.037029098719358444,-0.004591647535562515,0.0037527051754295826,-0.011898201890289783,0.00005661213072016835,-0.069670170545578,-0.01958167739212513,-0.017963845282793045,0.029173413291573524,-0.06342713534832001,-0.09197723865509033,0.013979189097881317,0.02651025354862213,0.008724907413125038,-0.0005548825720325112,0.0011322201462462544,-0.03972252830862999,-0.030418267473578453,0.04436618834733963,-0.025544587522745132,0.013970812782645226,-0.04226876050233841,-0.04482400417327881,0.04348677024245262,-0.029584167525172234,0.002633520867675543,0.04042934253811836,0.033104538917541504,0.03391105309128761,-0.016138093546032906,0.0070706442929804325,0.016073625534772873,0.0601947084069252,0.023523591458797455,-0.0056222365237772465,0.02536448836326599,-0.028533518314361572,0.03115721605718136,-0.004525429103523493,0.008388036862015724,0.0728815495967865,0.018680626526474953,-0.06729298830032349,0.015172629617154598,0.00043055659625679255,-0.024524100124835968,0.055857956409454346,0.030833305791020393,-0.023138420656323433,-0.0015950470697134733,-0.0020012317690998316,-0.008610344491899014,0.045712172985076904,-0.0010076658800244331,-0.012474640272557735,0.0036912565119564533,0.03799626603722572,-0.00997461099177599,0.018254896625876427,-0.02513621747493744,-0.005841143894940615,0.02132190577685833,-0.0033259508199989796,-0.047856640070676804,0.05766225606203079,0.054503653198480606,-0.0013232597848400474,-0.018130682408809662,0.02181161195039749,0.010943234898149967,-0.024640442803502083,-0.015323355793952942,-0.06494607031345367,0.017830992117524147,-0.05167236179113388,0.02727106772363186,-0.015601340681314468,-0.03462066128849983,-0.005624793469905853,-0.027712242677807808,-0.00007179162639658898,-0.0038984499406069517,0.013568869791924953,0.023848524317145348,0.0015330759342759848,-0.011339964345097542,-0.028476430103182793,0.09600792080163956,0.026906417682766914,0.03887849301099777,0.03641091659665108,0.052500538527965546,0.058721888810396194,0.026466939598321915,0.03689108043909073,-0.0027309420984238386,-0.0057719494216144085,-0.0016712263459339738,0.02969234064221382,0.027690816670656204,0.06003721430897713,-0.0036960775032639503,0.01644686795771122,0.04887712746858597,-0.015291103161871433,0.06756612658500671,0.03661085292696953,-0.06094423308968544,-0.02684740535914898,0.013268625363707542,-0.004895748570561409,-0.00999901257455349,0.03225325793027878,0.032968807965517044,-0.0008352683507837355,-0.01630573533475399,0.028302010148763657,-0.051758695393800735,-0.005313361994922161,-0.009545561857521534,-0.040425367653369904,-0.017536377534270287,-0.015551631338894367,0.005808285437524319,-0.026391563937067986,-0.03780248388648033,0.02118791453540325,0.028785381466150284,-0.022455358877778053,-0.04059348627924919,0.03812053054571152,-0.010835346765816212,-0.0456845723092556,-0.0006356699159368873,-0.008451562374830246,-0.01627509295940399,-0.014623524621129036,0.004517975728958845,0.04052942618727684,0.0009321174584329128,-0.04078715294599533,0.013805664144456387,-0.00642780214548111,-0.034381285309791565,0.019988534972071648,0.009788958355784416,-0.02845403552055359,0.029046252369880676,0.021041497588157654,-0.07222377508878708,0.03694334253668785,-0.05255161225795746,-0.056369148194789886,-0.034801825881004333,-0.0018675337778404355,-0.016613014042377472,-0.0176751296967268,-0.028291579335927963,0.0073209539987146854,-0.016459990292787552,-0.03055112436413765,-0.06110702455043793,-0.055315062403678894,-0.05690939351916313,0.04539165645837784,0.051372043788433075,-0.026500558480620384,-0.01910942606627941,-0.00766359968110919,-0.05485490709543228,-0.0654907077550888,0.010467889718711376,-0.02952645905315876,-0.0054708137176930904,0.03887295722961426,0.06826978176832199,-0.019070686772465706,0.0070770252496004105,0.0052184429951012135,0.023070918396115303,-0.04176880419254303,0.0011735426960512996,-0.01609238050878048,-0.036049023270606995,0.04914315044879913,-0.03130342438817024,-0.05202384293079376,0.03316874802112579,0.04709988459944725,-0.00824859831482172,-0.015095938928425312,0.015353326685726643,0.008125887252390385,0.007527957670390606,0.06631303578615189,-0.043231941759586334,0.001113906386308372,0.07384292036294937,0.030645174905657768,-0.037168268114328384,-0.08585929870605469,0.024534674361348152,0.006726985797286034,0.04058040305972099,-0.029246121644973755,0.032878242433071136,-0.003073674626648426,0.05960625782608986,-0.05509398132562637,0.036815594881772995,-0.012261748313903809,-0.006816128734499216,-0.033289678394794464,-0.055097345262765884,0.00313964975066483,-0.006417740136384964,-0.046120550483465195,-0.010089696384966373,-0.0014337928732857108,0.010895887389779091,-0.030853761360049248,-0.017679698765277863,-0.09886965900659561,0.005626792553812265,-0.02276149019598961,-0.014895880594849586,0.017309091985225677,-0.04765897989273071,0.006875903345644474,0.06668952852487564,-0.013167313300073147,-0.019777365028858185,0.029714355245232582,0.02570444718003273,-0.02751457504928112,0.024127665907144547,-0.007092053070664406,-0.03342654928565025,0.006390135269612074,0.00562419043853879,0.03467077016830444,0.02491105906665325,0.014376668259501457,-0.0025319631677120924,0.003276993054896593,0.025746392086148262,-0.014735270291566849,-0.021023906767368317,-0.015437302179634571,0.025938082486391068,-0.034766267985105515,0.0605759434401989,-0.010015375912189484,-0.0024733543395996094,-0.009646096266806126,-0.027482986450195312,-0.004539917688816786,-0.04592948406934738,-0.047341443598270416,0.0029065837152302265,-0.01202256791293621,0.03360878303647041,0.08235000818967819,0.03850286826491356,-0.002191294450312853,-0.009592738933861256,-0.028371751308441162,0.019397985190153122,0.04597781226038933,0.015774967148900032,0.012700536288321018,0.04139934107661247,-0.0020582887809723616,-0.0006516412831842899,0.015204125083982944,0.023064495995640755,0.007923663593828678,-0.04148813709616661,0.00997698400169611,0.013381371274590492,0.021786652505397797,0.000513437029439956,-0.07001092284917831,0.0033705320674926043,-0.04139861837029457,0.03599750995635986,0.00953901931643486,-0.01589241251349449,-0.023524204269051552,-0.03783378005027771,-0.01966351829469204,0.002324612345546484,0.0372624434530735,-0.01918390765786171,0.02592630498111248,-0.014949824661016464,0.02822115831077099,-0.014714403077960014,-0.016220606863498688,-0.03492623567581177,0.029379969462752342,0.03227705508470535,0.03225693479180336,-0.03637029603123665,-0.017672771587967873,-0.025941869243979454,-0.05915038287639618,0.023848867043852806,0.01426861435174942,0.013236490078270435,0.023787368088960648,-0.033189382404088974,-0.057072822004556656,-0.031304553151130676,0.08922918885946274,0.0077218953520059586,-0.03004935383796692,0.05140370875597,-0.0020647228229790926,0.006325370632112026,-0.045755963772535324,0.003145636525005102,0.06599566340446472,-0.05836166441440582]],"7d081e3822387069430df3f737152c1a":[0.9999832800954223,[0.018975879997015,0.07930532097816467,-0.05136712267994881,0.04863966628909111,-0.0012718496145680547,0.07482388615608215,0.01101666409522295,0.020316414535045624,0.029773449525237083,0.02395913004875183,0.008131260052323341,0.05226437374949455,0.05002713203430176,-0.004386283457279205,-0.026254288852214813,-0.07162777334451675,0.034656327217817307,0.042123064398765564,-0.022634446620941162,0.013435391709208488,-0.012568147853016853,0.02249222621321678,0.018193427473306656,-0.002811263082548976,-0.011015514843165874,-0.014446506276726723,0.017440052703022957,-0.0015788997989147902,0.023746998980641365,-0.06339231878519058,0.016901958733797073,0.030029509216547012,0.006300934590399265,-0.01912989653646946,0.017693405970931053,0.05578877404332161,-0.013858907856047153,0.006264957133680582,-0.019896768033504486,-0.028131265193223953,-0.06554818898439407,-0.04857482388615608,-0.005798814352601767,-0.008210207335650921,-0.05595649033784866,-0.010926040820777416,-0.030456123873591423,0.018512185662984848,-0.09035632759332657,0.008936526253819466,0.035254836082458496,0.002103512641042471,-0.05567753314971924,-0.007697772700339556,-0.06099160015583038,-0.02842368371784687,-0.001598839764483273,-0.01082654856145382,0.015798775479197502,-0.03282661363482475,-0.07663927227258682,-0.009625791572034359,-0.06360787898302078,-0.012479213997721672,-0.01946081779897213,-0.0321568064391613,-0.005650210194289684,-0.025855103507637978,-0.05598609149456024,0.03477697819471359,-0.019517559558153152,0.05339277908205986,-0.06355097889900208,0.034667689353227615,-0.04276527464389801,-0.029969509690999985,0.024356277659535408,-0.0247329194098711,0.011133070103824139,0.046519454568624496,-0.05434400960803032,-0.0031783459708094597,0.03947536274790764,0.04698336124420166,0.06486552953720093,0.029691344127058983,-0.012442457489669323,-0.020024966448545456,-0.06849591434001923,-0.024689650163054466,0.03247078135609627,-0.024796821177005768,-0.030486272647976875,-0.015155651606619358,0.10726220160722733,-0.046200960874557495,-0.07887868583202362,-0.09122779220342636,-0.008413339965045452,0.019550472497940063,-0.00702474033460021,-0.035887397825717926,-0.020287975668907166,-0.009285523556172848,-0.002117766998708248,0.01845596730709076,-0.0290323868393898,-0.03563982993364334,-0.08843100070953369,0.005674789659678936,-0.026571854948997498,-0.04903394356369972,0.034262146800756454,-0.006331342738121748,-0.0468398742377758,-0.05881805345416069,0.013168331235647202,0.03470563143491745,-0.040604520589113235,-0.007356464397162199,0.03850441798567772,0.010236476548016071,0.018402738496661186,0.05638342350721359,0.08469311892986298,-0.0073167020455002785,0.00409936485812068,-0.027919473126530647,-0.007973219268023968,-0.04454539716243744,0.019453058019280434,-0.06162336468696594,-0.006218594498932362,0.05403025448322296,-0.011067822575569153,-0.007222028449177742,0.04564657062292099,-0.010233660228550434,0.009341160766780376,0.04212171211838722,0.003567878156900406,-0.023949503898620605,-0.04888942465186119,0.010115922428667545,-0.023697713389992714,0.008815694600343704,-0.016728563234210014,0.06289046257734299,-0.0209985189139843,0.05163724347949028,-0.08706437051296234,-0.015455854125320911,0.01136027555912733,-0.00447068503126502,-0.01762954704463482,-0.014876884408295155,0.03365762159228325,-0.04968889802694321,0.02663986012339592,0.002795906038954854,0.010401065461337566,-0.02050776407122612,0.008701641112565994,0.03509492427110672,0.03354056924581528,-0.07922877371311188,-0.08552633225917816,-0.06381788104772568,-0.019769402220845222,-0.008088426664471626,-0.05106032267212868,-0.035221606492996216,-0.050313349813222885,-0.091702401638031,0.019637923687696457,0.019282544031739235,-0.030948393046855927,-0.04300123080611229,-0.01993578113615513,0.01244157925248146,0.09226646274328232,0.018597930669784546,0.02320696972310543,-0.042304378002882004,0.032522186636924744,-0.008506282232701778,-0.008523383177816868,0.0805867537856102,0.006751419045031071,0.024264831095933914,-0.01880323328077793,-0.04873141646385193,0.058819063007831573,0.02151150070130825,0.044618234038352966,0.010545077733695507,0.055917348712682724,-0.022043973207473755,-0.011234620586037636,0.011259560473263264,0.016533389687538147,-0.05343172326683998,-0.011761040426790714,0.020160885527729988,-0.022178195416927338,-0.025542723014950752,-0.049970678985118866,-0.06024067476391792,-0.009407063946127892,0.014117811806499958,-0.004261941649019718,-0.05897388234734535,0.003563037607818842,-0.06227758154273033,-0.014950224198400974,-0.008909804746508598,0.06926879286766052,-0.0060311718843877316,0.07513651251792908,-0.024456530809402466,0.029807886108756065,-0.015621057711541653,0.032542239874601364,-0.0010643292916938663,0.02016664296388626,-0.03791891783475876,-0.053433965891599655,-0.006213104352355003,-0.0005397264612838626,-0.0828074961900711,0.009218106977641582,0.06150548905134201,-0.019511058926582336,0.003545617451891303,-0.010935859754681587,0.013791931793093681,-0.019098391756415367,-0.0605684295296669,-0.07819324731826782,-0.007612129207700491,0.03692729398608208,-0.008921341970562935,0.02492743544280529,-0.02171570062637329,0.059091441333293915,0.01594158262014389,-0.020646246150135994,0.004683191888034344,-0.042241133749485016,0.010178928263485432,-0.002153997076675296,-0.004834461025893688,-0.05835371091961861,-0.031766366213560104,-0.04354102909564972,0.04271829500794411,0.058947231620550156,-0.013591721653938293,-0.0024032050278037786,0.013865681365132332,0.0007144014234654605,-0.03348688781261444,-0.017430955544114113,-0.014146044850349426,-0.08434047549962997,-0.11366967856884003,-0.007352873217314482,-0.04269905760884285,0.0176547784358263,-0.06857660412788391,0.022656938061118126,-0.07392521947622299,-0.05790359899401665,0.0006153561407700181,-0.018582940101623535,0.04870506003499031,-0.04821690917015076,0.0031094527803361416,-0.009162727743387222,-0.010730866342782974,0.04769944027066231,-0.010695003904402256,-0.005625149700790644,-0.04145978391170502,0.014424454420804977,-0.03735266253352165,0.003248630091547966,-0.001633219886571169,-0.018365520983934402,-0.0038757824804633856,0.03765532746911049,0.039483144879341125,-0.015041875652968884,0.011403043754398823,0.0670020803809166,-0.016671761870384216,0.047762032598257065,0.05013923719525337,0.026303939521312714,-0.02135552279651165,0.03066626936197281,0.03361039236187935,-0.017647311091423035,-0.015667321160435677,0.0084722014144063,0.014330941252410412,-0.014788963831961155,-0.01251976191997528,0.015249937772750854,0.01245013065636158,0.030036987736821175,0.027331314980983734,-0.043086711317300797,0.04327556863427162,-0.0017359626945108175,-0.04227980226278305,-0.125531405210495,-0.008202838711440563,-0.01190904900431633,0.010252109728753567,0.023758625611662865,0.021756412461400032,-0.04222385585308075,-0.05791566148400307,0.042254235595464706,-0.00856636743992567,-0.002489835023880005,0.011964736506342888,-0.032802946865558624,0.009903253987431526,0.040715090930461884,-0.020324358716607094,-0.011886647902429104,-0.017595764249563217,0.023316219449043274,0.014402633532881737,-0.024574410170316696,-0.017784718424081802,0.042407333850860596,0.033932458609342575,0.034612152725458145,-0.00569147290661931,0.040517859160900116,-0.010110434144735336,0.03529539704322815,-0.012060129083693027,0.004852167330682278,-0.03852493688464165,-0.0027888882905244827,-0.013669951818883419,0.009396025910973549,0.03877841681241989,0.006835560314357281,-0.017078910022974014,0.06722242385149002,0.06031174212694168,0.08512872457504272,0.005091617815196514,-0.02796231582760811,0.006752279121428728,0.003173655830323696,0.019089967012405396,-0.02205391228199005,0.04300091043114662,-0.008534801192581654,-0.0027952997479587793,0.021098436787724495,0.08162148296833038,-0.0076621463522315025,-0.05590040981769562,-0.01536871399730444,0.065609410405159,0.0021147364750504494,-0.009605278261005878,0.007121276576071978,-0.03966474533081055,-0.03730333596467972,0.01979617215692997,0.02344176359474659,-0.013214698992669582,-0.03595031797885895,-0.04288118705153465,-0.00403289869427681,-0.003843329381197691,-0.020657679066061974,0.05643496289849281,-0.04013733193278313,0.02784290350973606,-0.006439695134758949,0.019469870254397392,-0.039563119411468506,0.027198081836104393,0.018380971625447273,-0.004628306720405817,-0.02383955754339695,0.037669114768505096,-0.01756470836699009,0.027770759537816048,-0.009244220331311226,-0.006053899880498648,-0.07081419229507446,0.0030965926125645638,0.06227399781346321,-0.008280114270746708,-0.00227340473793447,-0.053248293697834015,0.07314290851354599,0.01581874117255211,-0.02760961838066578,0.0059672086499631405,0.01152329333126545,-0.05330291762948036,-0.02220666967332363,0.06061495095491409,-0.0024655656889081,0.03014262020587921,-0.009478623047471046,0.004249067045748234,-0.018917053937911987,0.037560638040304184,0.0068640573881566525,0.038592275232076645,0.06723026931285858,0.030550101771950722,0.014803127385675907,-0.05463303625583649,-0.006912894546985626,-0.004426689352840185,0.003896639682352543,-0.04034443944692612,0.057061824947595596,0.02383754961192608,-0.01395372673869133,0.015600270591676235,-0.004553020931780338,0.056853655725717545,-0.007053064182400703,-0.04279505833983421,-0.0033003780990839005,0.03175985813140869,0.0031779848504811525,0.009369557723402977,0.00976965855807066,0.0043084220960736275,-0.014351535588502884,0.020705480128526688,-0.008409456349909306,-0.005015886854380369,-0.01924077607691288,-0.06200680509209633,0.0026162953581660986,-0.004746737889945507,0.03510543704032898,-0.07176797091960907,-0.05764025077223778,-0.010811774991452694,0.05514092743396759,0.0542251355946064,-0.028565427288413048,0.04696979746222496,-0.032576125115156174,-0.03227756917476654,0.020776759833097458,0.0015227707335725427,0.03100898116827011,-0.0821133553981781,-0.03251511603593826,0.04083920642733574,-0.014755568467080593,0.04435311630368233,0.061973363161087036,0.03308124095201492,0.017787590622901917,0.02182498387992382,0.01223205029964447,0.027409212663769722,0.05709153041243553,-0.007928663864731789,0.005298093892633915,0.0064353677444159985,-0.018851393833756447,0.0033785258419811726,-0.0045137121342122555,0.03492598608136177,0.07178736478090286,-0.012971927411854267,-0.04998018592596054,0.01891643926501274,-0.022618595510721207,-0.02964433655142784,0.027482349425554276,0.023151932284235954,-0.015223788097500801,-0.012070356868207455,0.019484199583530426,-0.021757975220680237,0.019807543605566025,0.0077657317742705345,0.0016824653139337897,0.013175834901630878,0.04785468056797981,0.01167707797139883,-0.002284154761582613,-0.014295607805252075,0.019768759608268738,0.009257536381483078,-0.025927098467946053,-0.03684506192803383,0.05876031517982483,0.022819625213742256,0.001622652285732329,0.018386371433734894,0.020679060369729996,0.02151729166507721,-0.04333580285310745,-0.01384858600795269,-0.027152802795171738,0.02275947667658329,-0.06835450232028961,0.055321987718343735,-0.032332953065633774,-0.04426919296383858,0.0101141557097435,-0.017613571137189865,-0.01940203830599785,0.007375700399279594,0.008268889039754868,0.023253628984093666,-0.0001411663688486442,-0.02882680483162403,0.0008237506845034659,0.0527912937104702,0.010992247611284256,0.027792416512966156,0.0293569453060627,0.06453410536050797,0.03453748673200607,0.021083537489175797,-0.0019426061771810055,-0.006933484226465225,0.015709340572357178,-0.019809074699878693,0.030136477202177048,0.0243315938860178,0.04139368236064911,-0.014079821296036243,0.033663779497146606,0.05434529483318329,0.017041416838765144,0.07579798251390457,0.006796835921704769,-0.02726832404732704,-0.015115958638489246,0.0027867790777236223,-0.030526820570230484,-0.010922000743448734,0.055915649980306625,-0.011055746115744114,-0.012695100158452988,0.020276475697755814,0.034146036952733994,-0.03659670427441597,0.007111780345439911,-0.026485269889235497,-0.04285412281751633,0.017104102298617363,-0.03346988931298256,0.005980778485536575,0.0026284665800631046,-0.04942813888192177,-0.024912841618061066,0.006461776793003082,-0.020941296592354774,-0.04540880024433136,0.03589754179120064,-0.037186648696660995,-0.059130992740392685,0.02512422576546669,0.011270210146903992,-0.052453454583883286,-0.014908231794834137,-0.01827809028327465,0.09037595987319946,-0.015317395329475403,-0.004553983919322491,0.00018791036563925445,-0.0010952302254736423,-0.018441682681441307,0.021344056352972984,0.030391283333301544,-0.028978953137993813,-0.01241779699921608,0.008223254233598709,-0.06133000925183296,0.03021954372525215,-0.04384272173047066,-0.06777767837047577,-0.047762662172317505,0.04108361899852753,0.008580702356994152,0.014257990755140781,0.02848947048187256,-0.035557713359594345,-0.013767881318926811,-0.0416082926094532,-0.05787983536720276,-0.0604696124792099,-0.02211356721818447,0.020727917551994324,0.02207130379974842,-0.03355450928211212,0.025085648521780968,-0.040170297026634216,-0.046145062893629074,-0.10082992911338806,0.05880681797862053,-0.023825976997613907,-0.013677776791155338,0.052938710898160934,0.08884357661008835,-0.024467121809720993,0.01883004605770111,0.009841490536928177,-0.012765008956193924,-0.03317011892795563,0.031100058928132057,-0.005032927729189396,-0.007829831913113594,0.0531797930598259,-0.013264239765703678,-0.04347803443670273,0.02338939905166626,0.03696448355913162,0.004751581698656082,0.004583279602229595,0.016046473756432533,-0.03618665412068367,-0.0198352187871933,0.061667874455451965,-0.03195952624082565,-0.01735982485115528,0.06638841331005096,0.04547349736094475,0.00296280556358397,-0.09467346221208572,0.04285358265042305,0.012549125589430332,0.04685012996196747,-0.036846138536930084,0.03237083554267883,0.009669660590589046,-0.00019797067216131836,-0.05903293564915657,0.025908280164003372,-0.03380955010652542,-0.012596297077834606,-0.05623987317085266,-0.046114347875118256,-0.00914012175053358,0.007931350730359554,-0.060530468821525574,-0.006813304033130407,0.0348406545817852,0.012170551344752312,-0.07979803532361984,-0.024936029687523842,-0.09580862522125244,-0.02619924768805504,0.011576371267437935,0.009116961620748043,0.01928679086267948,-0.024714376777410507,0.0242259930819273,0.060047950595617294,0.0011908781016245484,-0.002927415305748582,0.01375066302716732,0.018044209107756615,-0.005646046716719866,0.011026867665350437,-0.026031415909528732,-0.016463713720440865,-0.015154353342950344,-0.01836503855884075,0.02802436426281929,0.024093931540846825,0.03719894215464592,-0.0032348623499274254,0.011496077291667461,0.06240933761000633,0.005543999373912811,-0.045724593102931976,-0.029846452176570892,0.026734229177236557,0.001695625833235681,0.030645020306110382,-0.026845654472708702,0.00014318266767077148,-0.04652208462357521,-0.010405542328953743,-0.025542087852954865,-0.08182889223098755,-0.004677952732890844,-0.031096942722797394,-0.02717282995581627,0.0034731223713606596,0.04673242196440697,0.02532239444553852,-0.006822272669523954,0.021453645080327988,-0.01392869371920824,0.003855002811178565,0.0876697525382042,0.022544775158166885,-0.012901158072054386,0.03460988774895668,-0.01957831345498562,-0.00021443873993121088,0.0204999390989542,0.029957443475723267,0.01557163055986166,-0.042570918798446655,0.01669955439865589,0.010358327999711037,0.043817825615406036,0.012736006639897823,-0.04996032267808914,0.00688573531806469,-0.06721421331167221,0.0429794043302536,0.006286571733653545,-0.014223309233784676,0.0016420756001025438,-0.009971309453248978,-0.011029822751879692,0.0009318791562691331,0.012633292935788631,-0.012192076072096825,0.017900770530104637,-0.020223576575517654,0.017416534945368767,-0.04221700504422188,-0.01511944830417633,-0.04210587963461876,-0.0007588609587401152,0.012848676182329655,0.007216522004455328,-0.033557500690221786,-0.0354059562087059,-0.019782638177275658,-0.09045764803886414,0.040213920176029205,0.01754959672689438,0.004798346199095249,0.04171527549624443,-0.01969517394900322,-0.038986414670944214,0.0005146001349203289,0.08874182403087616,0.057493906468153,-0.029986068606376648,0.06766044348478317,0.006999379023909569,0.008947295136749744,-0.05580408126115799,-0.03781244531273842,0.06348934769630432,-0.07228358834981918]],"4a6a8ea24d069df04cd0caf86886fbaa":[0.9999911529747403,[0.02186049148440361,0.07453761994838715,-0.03821800649166107,0.033084869384765625,-0.0024913151282817125,0.06072913110256195,0.04109498858451843,0.008106539025902748,0.03045027330517769,0.02141718938946724,-0.009120455943048,0.06782389432191849,0.05824644863605499,-0.029671793803572655,-0.013774449937045574,-0.0504135899245739,0.04075432941317558,0.04551469907164574,-0.018488990142941475,-0.006932690739631653,-0.024405652657151222,0.012746852822601795,-0.006865248084068298,-0.007139596156775951,-0.00038877339102327824,-0.03198771923780441,0.01348864659667015,-0.020087113603949547,0.017157351598143578,-0.04911074787378311,-0.0074850451201200485,0.056890133768320084,0.026383496820926666,-0.04891400784254074,0.04491184279322624,0.06562457233667374,-0.013929223641753197,0.05522575601935387,-0.0025924183428287506,-0.02231939323246479,-0.07076265662908554,-0.027328211814165115,-0.02294868789613247,-0.008237915113568306,-0.02104072831571102,0.006720622070133686,-0.041391223669052124,0.023180266842246056,-0.06672822684049606,0.01901986077427864,0.06043609604239464,-0.004311982076615095,-0.02611914463341236,-0.03757724538445473,-0.07376926392316818,-0.04197705164551735,-0.02721990831196308,-0.05377031862735748,0.04804391413927078,-0.006736239418387413,-0.07389811426401138,-0.001067035598680377,-0.05890139564871788,-0.03313719108700752,-0.005395705811679363,-0.010510138235986233,0.006086294073611498,-0.01495756208896637,-0.03976982831954956,0.043809469789266586,-0.02430911734700203,0.03348962217569351,-0.05924159288406372,-0.037371717393398285,0.0031808940693736076,-0.014272867701947689,0.01816261000931263,-0.025890735909342766,0.052889082580804825,0.05866501107811928,-0.05809769034385681,0.0015081323217600584,0.034686535596847534,0.0773499384522438,0.03645678982138634,0.03807613626122475,0.02051004022359848,-0.002841063542291522,-0.08108965307474136,-0.03107381798326969,0.042587000876665115,0.011331949383020401,-0.045099273324012756,-0.01787065900862217,0.08675306290388107,-0.041036661714315414,-0.0767507404088974,-0.1245461255311966,0.026696305721998215,0.04790310561656952,0.0072553339414298534,-0.009503607638180256,0.014662879519164562,-0.05820408836007118,0.02943556196987629,0.0021427483297884464,-0.008636473678052425,-0.016437359154224396,-0.0993819311261177,0.016710860654711723,-0.015050895512104034,-0.009660041891038418,0.007412411738187075,-0.024060266092419624,-0.018818436190485954,-0.0007294303504750133,0.03163779899477959,0.06367413699626923,-0.02376893162727356,-0.043823737651109695,0.06768185645341873,0.014255614019930363,-0.03188970685005188,0.05061548948287964,0.07102388888597488,-0.0016489996341988444,0.009539546445012093,-0.00854132603853941,0.0033436475787311792,-0.005030203610658646,0.042342979460954666,-0.07055331021547318,-0.020692523568868637,0.0282147154211998,-0.01443246379494667,-0.0007666790625080466,0.012681162916123867,0.024575527757406235,0.055992163717746735,0.0035795073490589857,-0.028823796659708023,-0.01104976236820221,-0.1130739152431488,0.037142012268304825,-0.022238999605178833,-0.03765697032213211,-0.02715594694018364,0.04680171236395836,-0.014249597676098347,0.026354126632213593,-0.06455834209918976,0.009768717922270298,0.010000553913414478,-0.027083367109298706,-0.031429510563611984,-0.026864929124712944,0.03500105440616608,-0.07587803900241852,-0.0046819900162518024,0.010613161139190197,0.00010840162576641887,-0.05334790423512459,0.017057498916983604,0.02658812142908573,0.005250298418104649,-0.05767522752285004,-0.06995578855276108,-0.028619103133678436,-0.00531846983358264,-0.029518213123083115,-0.03627097234129906,-0.05572070926427841,-0.05633513629436493,-0.020988890901207924,-0.013913651928305626,0.014640550129115582,-0.004252644255757332,-0.033709567040205,-0.05561213567852974,0.010885940864682198,0.08141619712114334,0.04240063950419426,-0.002359373727813363,-0.0266951322555542,-0.0013224408030509949,0.01802120730280876,-0.001436250633560121,0.01992405764758587,0.020045246928930283,0.035783346742391586,0.020756304264068604,-0.04863134026527405,0.03192680701613426,0.028136011213064194,0.0020206235349178314,0.004465664736926556,0.06061045452952385,-0.020381394773721695,-0.025448458269238472,-0.009568153880536556,0.057050298899412155,-0.004214273300021887,-0.039147455245256424,-0.017092708498239517,0.00798522774130106,-0.00627885339781642,-0.052405234426259995,-0.07029542326927185,0.0035685787443071604,0.007443515583872795,0.007113364525139332,-0.03205297142267227,0.010259266011416912,-0.031944748014211655,-0.010215893387794495,-0.003626847406849265,0.03265775740146637,-0.02305617183446884,0.07574997842311859,-0.01950625143945217,0.0061626918613910675,0.0025951273273676634,0.0034469326492398977,0.03816306218504906,0.0023370489943772554,-0.02920965477824211,-0.07695242762565613,-0.009486823342740536,-0.021574845537543297,-0.03797627240419388,-0.017063818871974945,0.056489117443561554,-0.013714497908949852,-0.012251223437488079,-0.004843081347644329,0.024285435676574707,-0.003244927152991295,-0.08393015712499619,-0.05052211880683899,0.003409265074878931,0.019599182531237602,-0.022006096318364143,0.030824506655335426,0.0026727921795099974,0.04585937410593033,0.005554253701120615,-0.016804218292236328,-0.00042845940333791077,-0.0017951005138456821,-0.011447065509855747,0.03535708039999008,-0.023929337039589882,-0.055156633257865906,-0.011088790372014046,-0.046919360756874084,-0.0046231686137616634,0.043228764086961746,-0.0025087662506848574,-0.0026267152279615402,-0.004293894860893488,0.02538331225514412,-0.02219371683895588,-0.010638152249157429,-0.05472614988684654,-0.055766358971595764,-0.08621976524591446,-0.03283623233437538,-0.01512917410582304,0.016234207898378372,-0.06959950178861618,0.01883174479007721,-0.05691962316632271,-0.08976536244153976,0.008089502342045307,-0.06588442623615265,0.024357687681913376,-0.03781767934560776,-0.0049931504763662815,-0.0532974898815155,-0.04732636362314224,0.07514579594135284,0.002703320002183318,0.00109708565287292,-0.015576226636767387,0.002606001915410161,-0.01791365258395672,-0.021940656006336212,0.0014455157797783613,-0.015032146126031876,-0.008486413396894932,0.034887947142124176,0.056015096604824066,-0.01793367601931095,-0.029314875602722168,0.06595276296138763,-0.007570009212940931,0.05605900287628174,0.07903201133012772,0.03338484466075897,0.021421238780021667,0.01968979276716709,0.013047032989561558,-0.017973538488149643,0.02163703367114067,-0.007105999626219273,0.0012297172797843814,-0.0179318618029356,-0.030748959630727768,0.0024586059153079987,-0.013337017968297005,0.043005719780921936,0.03340167924761772,-0.043257299810647964,0.03417466580867767,-0.020567823201417923,-0.028846966102719307,-0.17345881462097168,-0.013477904722094536,-0.02601686492562294,0.017033014446496964,0.01913830265402794,-0.0049903662875294685,-0.07967676222324371,-0.023367183282971382,0.02227395586669445,-0.019599460065364838,-0.00043846582411788404,0.034242596477270126,0.006343449931591749,0.0045593432150781155,0.04794743284583092,-0.010881361551582813,-0.04234032332897186,-0.010958862490952015,-0.008484041318297386,0.03538721799850464,-0.06883194297552109,-0.002471198793500662,0.05187677964568138,0.06391138583421707,0.014106783084571362,0.0017546451417729259,0.03997961804270744,0.0088069261983037,-0.0013954483438283205,-0.03534407913684845,0.03647578880190849,-0.02494935318827629,-0.013032057322561741,-0.008554898202419281,0.05839359387755394,0.08079802989959717,-0.017304260283708572,-0.020963989198207855,0.03708949685096741,-0.0036045117303729057,0.047446660697460175,-0.0071564787067472935,0.009166508913040161,-0.02383277751505375,-0.011016896925866604,0.027984729036688805,0.0072347684763371944,0.05210579186677933,-0.014577957801520824,-0.008736168965697289,0.045367177575826645,0.06411540508270264,-0.013696935959160328,-0.008763768710196018,-0.019930144771933556,0.030861567705869675,0.008223925717175007,-0.004184831865131855,0.013482274487614632,-0.012926884926855564,-0.005130236502736807,0.012499013915657997,0.041253916919231415,-0.06214634329080582,-0.010454322211444378,-0.019326481968164444,-0.006217939779162407,0.032285500317811966,0.012383930385112762,0.07112006843090057,-0.060648225247859955,0.016087697818875313,0.001271574990823865,-0.014959676191210747,-0.045984167605638504,0.011642156168818474,-0.005627347622066736,0.02095058746635914,0.0022391255479305983,0.001175206620246172,-0.024994973093271255,0.05116663873195648,-0.022172823548316956,0.021262485533952713,-0.07370980083942413,0.010897709988057613,0.0663735643029213,-0.00798085331916809,-0.0043126679956912994,-0.02417910285294056,0.06287159025669098,0.014239667914807796,-0.03884537145495415,0.0367174856364727,-0.00904533639550209,-0.07107765972614288,-0.012419259175658226,0.03304382786154747,-0.0295106228441,-0.0016097684856504202,-0.0020048210863023996,-0.009934013709425926,0.019156452268362045,0.04689893126487732,-0.005541917867958546,0.01988847367465496,0.06979864090681076,0.04979090020060539,-0.024806249886751175,-0.08644991368055344,-0.012327616102993488,-0.0002861600078176707,-0.0005667951772920787,-0.0026052198372781277,0.044341251254081726,0.06047724932432175,-0.014206976629793644,-0.0315844863653183,0.0005236903089098632,0.04004381597042084,-0.0036637294106185436,-0.04370797052979469,-0.024079415947198868,0.028138311579823494,-0.004951797891408205,0.018111729994416237,0.05189315602183342,-0.0018790005706250668,-0.043773435056209564,0.029271479696035385,0.012312325648963451,-0.01313286367803812,0.013899829238653183,-0.06621921807527542,-0.023203492164611816,-0.009395826607942581,0.020158424973487854,-0.048567429184913635,-0.0905914157629013,0.04357708618044853,0.039776574820280075,